typedef float data_t;

typedef struct twoD
{
	uint32_t r;
	uint32_t c;
	uint32_t in_channel;
    uint32_t channel;
	data_t *data;
	data_t *bias;
} twoD_t;

const data_t w_0_weight[150]={-2.742171287536621094e-01,5.642630532383918762e-02,9.723259508609771729e-02,-5.702791363000869751e-02,1.217392683029174805e-01,-2.631778120994567871e-01,8.357074856758117676e-02,1.695452481508255005e-01,-2.699219062924385071e-02,1.022630929946899414e-01,-7.205396890640258789e-02,-1.508344560861587524e-01,3.220970928668975830e-02,-3.784222155809402466e-02,2.093135267496109009e-01,2.516257762908935547e-01,-4.588104039430618286e-02,3.308069407939910889e-01,2.105979770421981812e-01,7.998965680599212646e-02,2.518686652183532715e-01,1.336342394351959229e-01,2.880378663539886475e-01,2.469562888145446777e-01,2.100277990102767944e-01,-8.125410228967666626e-02,1.125382632017135620e-01,-1.399276405572891235e-02,2.001086473464965820e-01,2.837718129158020020e-01,-1.537419557571411133e-01,2.251242101192474365e-01,6.891436129808425903e-02,1.252203881740570068e-01,-3.164135292172431946e-02,-1.855106949806213379e-01,-8.287291973829269409e-03,1.965190917253494263e-01,3.359550535678863525e-01,4.703801497817039490e-02,2.008613757789134979e-02,5.920780077576637268e-02,3.462693989276885986e-01,3.063255548477172852e-01,2.521840333938598633e-01,1.072877123951911926e-01,-9.318722784519195557e-02,4.954443126916885376e-02,1.309970468282699585e-01,-1.801895946264266968e-01,2.445381134748458862e-01,2.134249061346054077e-01,1.253627985715866089e-01,-4.893982037901878357e-02,-3.399811089038848877e-01,3.932151943445205688e-02,9.608858078718185425e-02,1.074482351541519165e-01,-1.722214370965957642e-01,-4.832755029201507568e-01,1.280311495065689087e-01,1.200749799609184265e-01,-1.506615430116653442e-01,-4.555933773517608643e-01,-9.223479777574539185e-02,-3.403158625587821007e-03,3.446723148226737976e-02,-4.679721891880035400e-01,-3.841429054737091064e-01,2.261224389076232910e-01,-1.486202776432037354e-01,-4.135574698448181152e-01,-3.484334349632263184e-01,1.432463228702545166e-01,2.324808761477470398e-02,3.283348083496093750e-01,2.837068140506744385e-01,1.922265589237213135e-01,2.997501790523529053e-01,2.215499803423881531e-02,-2.097614295780658722e-02,6.215604022145271301e-02,2.404395341873168945e-01,-2.095400989055633545e-01,-1.681620627641677856e-02,-4.188970029354095459e-01,-3.808435797691345215e-01,-5.187599062919616699e-01,-3.042722046375274658e-01,-3.811305165290832520e-01,-4.355379641056060791e-01,-1.994035392999649048e-01,-2.902240157127380371e-01,-1.822091788053512573e-01,-8.644936978816986084e-02,-5.661042779684066772e-02,1.051875799894332886e-01,1.084636598825454712e-01,2.263353765010833740e-01,3.703159093856811523e-01,2.980011701583862305e-01,7.307998836040496826e-03,3.557379245758056641e-01,2.831823527812957764e-01,-5.375475063920021057e-02,7.046297192573547363e-02,5.792880430817604065e-02,1.249834075570106506e-01,3.472725749015808105e-01,2.264653742313385010e-01,1.280943900346755981e-01,-7.237484306097030640e-02,-7.198049128055572510e-02,3.430911600589752197e-01,1.322226077318191528e-01,-2.473825961351394653e-01,3.294509649276733398e-02,-8.514811098575592041e-02,1.717418283224105835e-01,2.150223255157470703e-01,-3.254514336585998535e-01,-2.672709822654724121e-01,-7.652732729911804199e-02,-1.592957973480224609e-01,2.075217813253402710e-01,1.847629100084304810e-01,3.800788521766662598e-02,-1.265461742877960205e-01,-1.212513521313667297e-01,-1.019588410854339600e-01,1.429640948772430420e-01,-1.480052918195724487e-01,-4.329784512519836426e-01,-2.213312834501266479e-01,-8.958748728036880493e-02,3.589845597743988037e-01,-1.586976647377014160e-01,-2.001440525054931641e-01,-1.704594045877456665e-01,-2.820826172828674316e-01,4.904833808541297913e-02,2.748423218727111816e-01,-2.442141436040401459e-02,-1.768086105585098267e-02,-4.499233886599540710e-02,1.369273364543914795e-01,7.856761664152145386e-02,4.488791823387145996e-01,4.166539609432220459e-01,2.861445248126983643e-01,};

const data_t w_0_bias[6]={-1.672967919148504734e-03,1.659212261438369751e-02,2.169717997312545776e-01,2.029075622558593750e-01,1.345764007419347763e-02,1.443605124950408936e-01,};

const twoD_t w_0_weight_2d = {
                           .r =5,
                           .c = 5,
                           .in_channel = 1,
                           .channel = 6,
                           .data = w_0_weight,
                           .bias = w_0_bias
                       };

const data_t w_3_weight[2400]={8.737248927354812622e-02,9.727281332015991211e-02,-5.002170801162719727e-02,-4.904650896787643433e-02,-6.751409731805324554e-03,5.254917219281196594e-02,1.867076009511947632e-01,8.959925174713134766e-02,4.678472876548767090e-02,7.118684053421020508e-02,1.963233202695846558e-01,-1.026322878897190094e-02,-7.175695151090621948e-02,3.642498701810836792e-02,1.049420684576034546e-01,5.921813473105430603e-02,-1.516474485397338867e-01,-1.649278700351715088e-01,1.094141602516174316e-02,8.637072145938873291e-02,-1.393578946590423584e-01,-9.885974973440170288e-02,-1.652771607041358948e-02,-4.154601320624351501e-02,1.016295030713081360e-01,1.127023622393608093e-01,6.917583942413330078e-02,-1.347556561231613159e-01,-1.114840507507324219e-01,4.225038737058639526e-02,1.556858886033296585e-02,6.302082538604736328e-02,-3.239080309867858887e-02,2.273169904947280884e-02,3.815146163105964661e-02,9.426511824131011963e-02,5.346549302339553833e-02,-1.444119065999984741e-01,2.089842921122908592e-03,5.316437780857086182e-02,1.451874524354934692e-01,7.001726888120174408e-03,-2.078112214803695679e-01,7.525102049112319946e-02,1.235493198037147522e-01,-1.011326909065246582e-01,-1.740476340055465698e-01,-5.168630555272102356e-02,-2.298561157658696175e-03,-1.255472470074892044e-02,6.215655058622360229e-02,-4.964544996619224548e-02,6.082764267921447754e-02,-5.927466973662376404e-02,4.699968174099922180e-02,3.902429342269897461e-02,-1.263882815837860107e-01,-5.329989641904830933e-02,5.738620460033416748e-02,-8.861435949802398682e-02,-7.557089626789093018e-02,4.135968908667564392e-02,7.736618071794509888e-02,-4.353874549269676208e-02,-2.816316857933998108e-02,6.253164261579513550e-02,1.644824296236038208e-01,1.093104556202888489e-01,-4.136256128549575806e-02,-2.437074296176433563e-02,1.799038350582122803e-01,8.053089678287506104e-02,9.272477030754089355e-02,-5.105624720454216003e-02,-3.415738418698310852e-02,-1.811468414962291718e-02,4.650855064392089844e-02,-5.374786257743835449e-02,-1.668310165405273438e-01,-1.479711979627609253e-01,1.256858557462692261e-01,-2.363809756934642792e-02,-1.588629633188247681e-01,-1.531906872987747192e-01,-1.688098013401031494e-01,-1.602912843227386475e-01,-1.277092695236206055e-01,5.524909496307373047e-02,-1.096992194652557373e-01,-3.395749032497406006e-01,1.271683443337678909e-02,1.545906364917755127e-01,1.140289455652236938e-01,-1.744235157966613770e-01,-3.680507540702819824e-01,2.540052831172943115e-01,1.360160857439041138e-01,2.036716602742671967e-02,-2.635036110877990723e-01,-2.698299884796142578e-01,1.515763103961944580e-01,-8.331502228975296021e-02,-1.408473104238510132e-01,8.254800736904144287e-02,6.949958950281143188e-02,1.103547066450119019e-01,-9.909214824438095093e-02,-1.885552518069744110e-02,5.787957832217216492e-02,5.222993437200784683e-03,-4.744460806250572205e-02,-5.145081877708435059e-02,-7.262608408927917480e-02,1.213927119970321655e-01,9.051281958818435669e-02,-3.734322264790534973e-02,5.160472542047500610e-02,-1.387060992419719696e-02,4.935457929968833923e-02,4.506044834852218628e-02,-3.034739196300506592e-02,-6.446318328380584717e-02,-2.157827466726303101e-02,3.893994912505149841e-02,1.170071661472320557e-01,-1.333417892456054688e-01,-1.520977020263671875e-01,1.496393680572509766e-01,-4.380903393030166626e-02,-8.377058804035186768e-02,-7.527060806751251221e-02,3.600761666893959045e-02,2.639446258544921875e-01,-5.781055241823196411e-02,-2.620279788970947266e-01,-7.077468931674957275e-02,7.399704190902411938e-04,7.117809355258941650e-02,-1.580857038497924805e-01,-3.847992122173309326e-01,1.403191406279802322e-02,1.125242188572883606e-01,5.870363116264343262e-02,-3.303163051605224609e-01,-2.995429039001464844e-01,9.829717129468917847e-02,6.019396241754293442e-03,-3.252344951033592224e-02,-3.464595675468444824e-01,-8.108309120871126652e-04,6.036496907472610474e-02,2.172645740211009979e-02,3.666688455268740654e-03,4.232083261013031006e-02,1.000178903341293335e-01,1.244962140917778015e-01,1.534151434898376465e-01,4.711950942873954773e-02,-2.547275647521018982e-02,-5.590078886598348618e-03,-8.899464458227157593e-02,-6.549429148435592651e-02,1.217313576489686966e-02,6.113334000110626221e-02,5.889550969004631042e-02,-5.884781107306480408e-02,1.669422490522265434e-03,-7.461490482091903687e-02,-3.599285706877708435e-02,-5.082532763481140137e-02,3.283284977078437805e-02,7.576096057891845703e-02,5.619654431939125061e-02,1.919364929199218750e-02,-1.808957755565643311e-02,-1.067804247140884399e-01,-9.369622915983200073e-02,-1.818471029400825500e-02,3.765019029378890991e-02,9.641196578741073608e-02,6.853018701076507568e-02,5.241441354155540466e-02,3.613380482420325279e-03,5.429513752460479736e-02,-2.531166933476924896e-02,-4.638552293181419373e-02,-2.136060968041419983e-02,2.478697150945663452e-02,-6.220425665378570557e-02,6.980611383914947510e-02,-5.302121117711067200e-02,-2.594529837369918823e-02,4.749301448464393616e-02,5.635918676853179932e-02,-7.820407301187515259e-02,-1.092481389641761780e-01,-5.933880060911178589e-02,5.481242761015892029e-02,3.717215498909354210e-03,-2.560609392821788788e-02,1.263237744569778442e-01,8.007613569498062134e-02,7.115957140922546387e-02,4.349891468882560730e-02,5.619965028017759323e-03,-9.708128869533538818e-03,-1.139766201376914978e-01,1.977222412824630737e-02,6.268295645713806152e-02,6.799252331256866455e-02,-1.175592187792062759e-02,-1.367365717887878418e-01,-3.825246170163154602e-02,-2.350506000220775604e-02,-1.255523115396499634e-01,-1.064835596480406821e-04,3.370575606822967529e-02,-1.438144594430923462e-01,-1.342247277498245239e-01,-1.197347715497016907e-01,3.191257640719413757e-02,-1.325402855873107910e-01,-1.740230247378349304e-02,-1.258228123188018799e-01,-8.283941447734832764e-02,6.734489649534225464e-02,7.512442767620086670e-02,1.590446382761001587e-01,-5.808444321155548096e-02,-1.104889437556266785e-01,6.823817640542984009e-02,-6.075233221054077148e-02,-1.337297260761260986e-01,-1.076376661658287048e-01,5.924215540289878845e-02,-3.700292110443115234e-02,-1.012351214885711670e-01,-7.084377855062484741e-02,-1.010046154260635376e-01,-5.368536803871393204e-03,1.324374526739120483e-01,1.690496802330017090e-01,-2.229744382202625275e-02,-1.457150876522064209e-01,-3.069098107516765594e-02,1.656460911035537720e-01,-3.074144572019577026e-02,1.010797452181577682e-02,6.389747560024261475e-02,2.949363738298416138e-02,-1.151361390948295593e-01,-1.118330210447311401e-01,-1.484614703804254532e-02,3.628093376755714417e-02,8.455785363912582397e-02,-9.732627868652343750e-02,-1.016335785388946533e-01,-1.060226485133171082e-01,-1.024020952172577381e-03,-5.786743387579917908e-02,7.876619696617126465e-02,3.335386142134666443e-02,8.093661814928054810e-02,-1.350270677357912064e-02,-2.737229131162166595e-02,1.169502735137939453e-01,1.405256539583206177e-01,2.203679643571376801e-02,-6.619600206613540649e-02,-8.175637573003768921e-02,-3.201731294393539429e-02,-7.070389389991760254e-02,4.401975125074386597e-02,-3.006848879158496857e-02,-7.198530714958906174e-03,9.392295777797698975e-02,1.462540626525878906e-01,-1.927891978994011879e-03,-5.602160096168518066e-02,5.530241131782531738e-02,2.088811695575714111e-01,1.482104659080505371e-01,4.494468122720718384e-02,-1.878985613584518433e-01,6.650933623313903809e-02,-4.191652685403823853e-02,8.591966470703482628e-04,8.751869946718215942e-02,7.871296256780624390e-02,1.534761786460876465e-01,-6.204761192202568054e-02,-9.680107235908508301e-03,-3.631329163908958435e-02,-1.176569424569606781e-02,9.072527289390563965e-02,1.367489993572235107e-01,-2.554160356521606445e-02,-1.564607322216033936e-01,4.040077794343233109e-03,-4.859376233071088791e-03,-1.845688223838806152e-01,-2.017845511436462402e-01,-9.141775965690612793e-02,5.815824121236801147e-02,6.552853435277938843e-02,-1.039019376039505005e-01,-1.952876299619674683e-01,-2.169828116893768311e-01,-2.472417205572128296e-01,-2.426073104143142700e-01,4.177394323050975800e-03,8.189748972654342651e-02,2.391759119927883148e-02,5.029927566647529602e-02,-4.835678264498710632e-03,1.714039593935012817e-01,4.561306536197662354e-02,7.374688982963562012e-02,1.613309830427169800e-01,1.681881248950958252e-01,1.085895746946334839e-01,9.472347795963287354e-02,7.489708065986633301e-02,1.811984740197658539e-02,5.906699225306510925e-02,-5.128157138824462891e-02,-9.452187269926071167e-02,2.657374367117881775e-03,1.622585356235504150e-01,6.063626706600189209e-02,-2.429941296577453613e-01,-2.319914549589157104e-01,-1.265558153390884399e-01,2.324236929416656494e-02,-5.431506037712097168e-02,-5.458212271332740784e-02,-1.587565392255783081e-01,-1.797616034746170044e-01,-1.995196193456649780e-01,-1.252755224704742432e-01,1.483347360044717789e-02,8.301919698715209961e-02,5.638169124722480774e-02,-5.183418095111846924e-02,-1.430466212332248688e-02,6.151850521564483643e-02,1.274660527706146240e-01,7.494002580642700195e-03,1.659116297960281372e-01,9.982611238956451416e-02,1.327143013477325439e-01,1.347068399190902710e-01,1.197627000510692596e-02,5.673065036535263062e-02,6.394630670547485352e-02,1.176558956503868103e-01,-1.930736191570758820e-02,-7.281772792339324951e-02,-2.515931148082017899e-03,1.038936227560043335e-01,1.207346469163894653e-01,2.446188591420650482e-02,3.214848414063453674e-02,-8.966447412967681885e-02,-4.033757001161575317e-02,-9.966561198234558105e-02,-1.668381690979003906e-01,-2.072145789861679077e-01,-3.216036260128021240e-01,-2.449080199003219604e-01,-1.732637733221054077e-01,-9.384024888277053833e-02,-1.802748441696166992e-01,-3.078813552856445312e-01,-1.677725464105606079e-01,-2.566373907029628754e-02,-4.647845774888992310e-02,-1.527061760425567627e-01,-1.264783293008804321e-01,-6.074945628643035889e-02,2.000968307256698608e-01,1.310042440891265869e-01,7.432284206151962280e-02,3.611689060926437378e-02,1.358583010733127594e-02,4.828160628676414490e-02,1.846183836460113525e-01,2.028194367885589600e-01,2.492465674877166748e-01,1.952909231185913086e-01,8.989290148019790649e-02,-2.930219285190105438e-02,-9.934610873460769653e-02,-2.522941865026950836e-02,-1.764394789934158325e-01,-2.197443842887878418e-01,-2.293968051671981812e-01,-1.149682104587554932e-01,-1.978408545255661011e-01,-7.633256912231445312e-02,-3.582096844911575317e-02,7.257609814405441284e-02,1.400711238384246826e-01,1.488350629806518555e-01,1.053915321826934814e-01,-1.449958086013793945e-01,-1.213550567626953125e-01,6.086106970906257629e-02,9.241774678230285645e-02,1.029132455587387085e-01,-1.962201297283172607e-01,-2.486139088869094849e-01,-2.617920637130737305e-01,-2.257235348224639893e-01,-1.297770887613296509e-01,-5.945477634668350220e-02,-8.277688920497894287e-02,1.789796911180019379e-02,-1.823784857988357544e-01,-1.125511825084686279e-01,5.759142339229583740e-02,6.648597121238708496e-02,1.695377379655838013e-01,5.895878002047538757e-02,2.586659044027328491e-02,6.564430892467498779e-02,2.461241185665130615e-02,-1.137394830584526062e-01,-1.766029894351959229e-01,-7.979599386453628540e-02,1.589050740003585815e-01,1.969011500477790833e-02,2.494241669774055481e-02,-6.199600547552108765e-02,-1.247365772724151611e-01,2.050072848796844482e-01,7.920491695404052734e-02,2.553106546401977539e-01,8.480279892683029175e-02,4.443566501140594482e-02,6.464470922946929932e-02,1.739973276853561401e-01,1.694878637790679932e-01,1.619441621005535126e-02,9.297326207160949707e-02,-1.291204839944839478e-01,-2.289841622114181519e-01,-2.393298298120498657e-01,-1.288552880287170410e-01,-1.179640460759401321e-02,6.998398154973983765e-02,-5.365896597504615784e-02,-6.890390068292617798e-03,-3.664002940058708191e-02,-1.161424517631530762e-01,9.314439445734024048e-02,-2.241161093115806580e-02,5.670306459069252014e-02,-1.075427755713462830e-01,7.859339565038681030e-02,7.622925937175750732e-02,5.871418491005897522e-02,8.864147961139678955e-02,3.888343647122383118e-02,4.904192686080932617e-02,7.519809156656265259e-02,-1.185457967221736908e-02,-3.969588130712509155e-02,-1.411249116063117981e-02,-4.717325791716575623e-02,1.799095049500465393e-02,-4.706002771854400635e-02,-6.351824104785919189e-02,1.928223110735416412e-02,-6.629239767789840698e-02,8.609076589345932007e-02,7.739730179309844971e-02,4.996129125356674194e-02,-4.413210600614547729e-02,-1.001190990209579468e-01,9.102903306484222412e-02,1.410710532218217850e-02,6.602273136377334595e-02,-3.270945325493812561e-02,1.545191183686256409e-02,-2.165671065449714661e-02,5.935148149728775024e-02,5.320841819047927856e-02,-3.527460992336273193e-02,-6.005968153476715088e-02,-3.603031858801841736e-02,1.215056050568819046e-02,5.202725902199745178e-02,2.404834702610969543e-02,-2.976529113948345184e-02,-2.629334339872002602e-03,2.851756289601325989e-02,-6.102686375379562378e-02,-6.753410212695598602e-03,-8.217071741819381714e-02,2.537134801968932152e-03,-1.273791342973709106e-01,-1.474961936473846436e-01,-5.789704993367195129e-02,4.175277054309844971e-02,5.826016515493392944e-02,-5.779028683900833130e-02,-1.579556763172149658e-01,-5.727210640907287598e-02,1.925654150545597076e-02,2.163028344511985779e-02,-2.138658165931701660e-01,-2.234609723091125488e-01,-2.834430336952209473e-01,-7.443628460168838501e-02,-8.262079954147338867e-02,-7.937787473201751709e-02,-2.199088931083679199e-01,-1.637669205665588379e-01,1.084201335906982422e-01,6.651463918387889862e-03,-6.361671537160873413e-02,-9.137324988842010498e-02,-1.249450910836458206e-02,-2.268355526030063629e-02,-2.954404801130294800e-02,-5.193564295768737793e-02,-1.995668858289718628e-01,-4.923549667000770569e-02,9.511011838912963867e-02,-2.460165508091449738e-02,-2.111423313617706299e-01,-9.768861532211303711e-02,-3.180758655071258545e-02,6.864936649799346924e-02,6.532762199640274048e-05,-1.606602370738983154e-01,-1.498514413833618164e-01,-1.090095192193984985e-01,-2.003056183457374573e-02,-4.798597190529108047e-03,-5.740298330783843994e-02,-6.861503422260284424e-02,-1.215038821101188660e-02,5.332240834832191467e-02,9.119108319282531738e-02,5.169152468442916870e-02,5.527314171195030212e-02,1.487086266279220581e-01,8.462411165237426758e-02,-1.869501918554306030e-02,5.618523433804512024e-02,3.615112230181694031e-02,-7.706920057535171509e-02,-7.013901136815547943e-03,-9.644593112170696259e-03,1.063336730003356934e-01,5.758899077773094177e-02,-6.212572753429412842e-02,2.878383966162800789e-03,5.360740050673484802e-02,4.476297646760940552e-02,-3.553980588912963867e-02,-1.214830130338668823e-01,-8.845482021570205688e-02,3.279248997569084167e-02,4.514466971158981323e-02,8.028851449489593506e-02,-1.904162927530705929e-03,1.184275299310684204e-01,1.382502494379878044e-03,5.469406396150588989e-02,-3.316981717944145203e-02,1.460048556327819824e-02,-2.154930308461189270e-02,8.202940970659255981e-02,-5.414880439639091492e-02,-6.929077208042144775e-02,1.937648281455039978e-02,3.624739497900009155e-02,-1.067076772451400757e-01,-4.811166226863861084e-02,-4.401740804314613342e-02,2.104067653417587280e-01,2.418897449970245361e-01,-6.319652311503887177e-04,-1.250720582902431488e-02,4.595191404223442078e-02,1.489184498786926270e-01,1.890273839235305786e-01,1.820915378630161285e-02,-1.263567209243774414e-01,-9.974616020917892456e-02,1.817500591278076172e-02,-8.239028602838516235e-02,-1.007963865995407104e-01,-2.121721655130386353e-01,2.484185807406902313e-02,-1.370691601186990738e-02,-2.271770313382148743e-02,-2.983001433312892914e-02,-7.002854347229003906e-02,-1.347372084856033325e-01,-5.858839303255081177e-02,2.025755867362022400e-02,1.101583316922187805e-01,-5.021372344344854355e-03,2.860963158309459686e-02,8.392789959907531738e-02,2.121779508888721466e-02,5.706588923931121826e-02,2.030526101589202881e-02,2.847996167838573456e-02,6.642542034387588501e-02,-5.803621932864189148e-02,3.113426640629768372e-02,5.607432126998901367e-02,6.959722936153411865e-02,-2.321644127368927002e-02,-1.052005216479301453e-01,1.342397332191467285e-01,1.059838309884071350e-01,-1.244728104211390018e-03,-9.826176613569259644e-02,-1.562970429658889771e-01,-1.752045005559921265e-02,-1.215651556849479675e-01,-6.419384479522705078e-02,-7.117339223623275757e-02,-6.250611692667007446e-02,-5.409847944974899292e-02,-1.033503189682960510e-01,-2.828765474259853363e-02,4.332211241126060486e-02,-2.144820289686322212e-03,7.310255616903305054e-02,-3.184306249022483826e-02,7.415378093719482422e-02,1.134067326784133911e-01,-8.367966115474700928e-02,-6.674386095255613327e-03,5.180434137582778931e-02,-3.972887247800827026e-02,1.192201953381299973e-02,-1.451893299818038940e-01,2.413258887827396393e-03,4.003798589110374451e-02,-4.128465428948402405e-02,-1.123674958944320679e-01,-2.194669283926486969e-02,8.161453530192375183e-03,1.105696894228458405e-02,1.131700202822685242e-01,9.733101725578308105e-02,-7.462657988071441650e-02,-1.853182166814804077e-01,-6.945940665900707245e-03,-6.830123066902160645e-02,1.812895946204662323e-02,7.082302868366241455e-02,-1.919059604406356812e-01,-1.600885391235351562e-01,-1.449823528528213501e-01,6.332118809223175049e-02,9.852259606122970581e-02,-9.992308169603347778e-02,1.021560430526733398e-01,9.032534062862396240e-02,3.308694064617156982e-02,9.430816769599914551e-02,5.919931083917617798e-02,9.323137998580932617e-02,7.236987352371215820e-02,9.687349200248718262e-03,-1.452071964740753174e-01,-1.731276661157608032e-01,-9.606847167015075684e-02,1.544214487075805664e-01,1.656165532767772675e-02,2.688319422304630280e-02,-2.454218454658985138e-02,7.516583800315856934e-02,6.709585338830947876e-02,-4.849218204617500305e-02,-1.409692764282226562e-01,1.422460749745368958e-02,-4.273625090718269348e-02,-2.446126937866210938e-02,-4.588843137025833130e-02,9.407237917184829712e-02,2.225687205791473389e-01,1.057816222310066223e-01,7.169505953788757324e-02,-6.586629897356033325e-02,1.222547367215156555e-01,1.679202467203140259e-01,1.268393397331237793e-01,-2.381311962381005287e-03,-6.383947283029556274e-02,6.547334045171737671e-02,-9.325286746025085449e-02,-6.166462972760200500e-02,6.054773554205894470e-02,7.812521420419216156e-03,-7.968452572822570801e-02,-7.674083858728408813e-02,-5.044015869498252869e-02,8.926705271005630493e-02,-3.989112004637718201e-02,-1.347520500421524048e-01,6.562267243862152100e-02,-5.391861870884895325e-02,-2.936790138483047485e-02,4.438387975096702576e-02,-9.416732192039489746e-02,1.384233981370925903e-01,1.299864649772644043e-01,3.059423342347145081e-02,-3.261750563979148865e-02,-5.736258625984191895e-02,7.086986303329467773e-02,9.687150269746780396e-02,-5.668442696332931519e-03,-4.593596607446670532e-02,-1.720554940402507782e-02,5.281268805265426636e-02,-6.204397976398468018e-02,5.888650193810462952e-02,4.626130312681198120e-02,-3.009744733572006226e-02,2.877314686775207520e-01,2.560375928878784180e-01,-1.407584641128778458e-02,-7.764396071434020996e-02,-7.362709939479827881e-02,-6.895031314343214035e-03,1.416024565696716309e-01,-7.188815623521804810e-02,-2.738775610923767090e-01,5.398158356547355652e-02,-3.273474425077438354e-02,-2.856134250760078430e-02,-5.991189740598201752e-03,3.636828064918518066e-02,1.128578260540962219e-01,-8.887893706560134888e-02,-2.100386321544647217e-01,-4.702905565500259399e-02,1.635684520006179810e-01,-6.612177193164825439e-02,-4.323926195502281189e-02,-1.656745821237564087e-01,-5.925341695547103882e-02,1.007626727223396301e-01,9.482348710298538208e-02,-2.730333991348743439e-02,-1.189670860767364502e-01,-8.798392117023468018e-02,1.569963842630386353e-01,1.077699139714241028e-01,-1.150586083531379700e-01,-1.482823938131332397e-01,4.198805987834930420e-02,1.620542407035827637e-01,1.264446228742599487e-01,-1.665087640285491943e-01,-7.240360230207443237e-02,4.551210254430770874e-02,1.684555262327194214e-01,1.023102644830942154e-02,-2.021566778421401978e-02,-4.041005298495292664e-02,5.291947722434997559e-02,7.607292383909225464e-02,-8.807107806205749512e-02,2.584206685423851013e-02,-1.482649892568588257e-01,-1.292347814887762070e-02,8.438210189342498779e-02,1.115683540701866150e-01,-2.651430107653141022e-02,-1.337068825960159302e-01,-1.291397660970687866e-01,1.582135856151580811e-01,1.894300878047943115e-01,-1.939229667186737061e-03,-1.517445594072341919e-01,-5.288253724575042725e-02,1.700837016105651855e-01,4.334387928247451782e-02,-7.156895846128463745e-02,-5.684001371264457703e-02,1.333885639905929565e-01,1.091811880469322205e-01,7.602532207965850830e-02,-9.706832468509674072e-02,3.007847629487514496e-02,1.310565322637557983e-01,1.426267921924591064e-01,3.999625518918037415e-02,-4.010781273245811462e-02,6.060183048248291016e-02,1.808374822139739990e-01,1.473989784717559814e-01,-4.437934979796409607e-02,1.743805594742298126e-02,1.836980581283569336e-01,2.415602058172225952e-01,1.374288946390151978e-01,2.154513448476791382e-02,1.475382298231124878e-01,1.128349304199218750e-01,1.772856265306472778e-01,-6.179498136043548584e-02,-1.715287752449512482e-02,1.411972194910049438e-01,1.572399288415908813e-01,1.584980785846710205e-01,-7.372528314590454102e-02,-3.902241215109825134e-02,3.011637032032012939e-01,1.103629618883132935e-01,7.005254924297332764e-02,-2.084162831306457520e-02,-7.416184991598129272e-02,-4.614671692252159119e-02,-1.276711970567703247e-01,-4.097453132271766663e-02,-2.899699658155441284e-02,-7.101570814847946167e-02,9.782224893569946289e-03,3.685861080884933472e-02,3.460039943456649780e-02,-3.404977172613143921e-02,-1.938692629337310791e-01,-8.125766180455684662e-03,1.107957288622856140e-01,1.131859198212623596e-01,-2.374793291091918945e-01,-3.503392636775970459e-01,1.313049346208572388e-01,8.886516094207763672e-02,3.018705733120441437e-02,-4.098546802997589111e-01,-2.389686405658721924e-01,3.013777434825897217e-01,9.606632590293884277e-02,-2.336536347866058350e-01,-3.021729290485382080e-01,-7.745043933391571045e-02,-7.775021344423294067e-02,-9.255228936672210693e-02,3.186050057411193848e-02,9.844052605330944061e-03,2.869973331689834595e-02,-1.401997357606887817e-01,-6.094034388661384583e-02,-6.530455499887466431e-02,3.175829350948333740e-02,-5.992475897073745728e-02,3.748593851923942566e-02,-1.112892180681228638e-01,2.372042648494243622e-02,1.238713189959526062e-01,-5.688648298382759094e-02,-2.897299826145172119e-02,-6.904178112745285034e-02,4.597341269254684448e-02,2.903032489120960236e-02,5.407807603478431702e-02,-2.419869601726531982e-02,-6.808191537857055664e-03,5.887047946453094482e-02,2.658132463693618774e-02,-4.050699621438980103e-02,4.739995300769805908e-02,2.539906091988086700e-02,-4.267528653144836426e-02,-1.803965419530868530e-01,4.160300362855195999e-03,1.449893414974212646e-01,6.948033720254898071e-02,7.417717948555946350e-03,-1.447210311889648438e-01,-1.148814260959625244e-01,7.194857299327850342e-02,1.706581264734268188e-01,-9.905666112899780273e-02,-3.807128071784973145e-01,-1.414257735013961792e-01,1.241077780723571777e-01,1.164691224694252014e-01,-1.363460570573806763e-01,-3.998724222183227539e-01,6.341867148876190186e-02,1.119142919778823853e-01,8.215880393981933594e-02,-3.039667308330535889e-01,-1.404945403337478638e-01,9.477508813142776489e-02,1.170364320278167725e-01,1.538390815258026123e-01,3.458431735634803772e-02,1.140969395637512207e-01,-4.537366703152656555e-02,1.113725155591964722e-01,1.052642464637756348e-01,1.130968108773231506e-01,1.451096981763839722e-01,1.538447737693786621e-01,-1.671477407217025757e-01,-9.579285979270935059e-02,-1.492505222558975220e-01,-2.082519931718707085e-03,-1.396000850945711136e-02,-1.983177214860916138e-01,-1.650400012731552124e-01,-1.180337220430374146e-01,-6.728655099868774414e-02,-6.104522943496704102e-02,-1.178565844893455505e-01,6.912239827215671539e-03,7.605568319559097290e-02,-3.035357035696506500e-02,-3.533423691987991333e-02,5.019483342766761780e-02,1.190931946039199829e-01,4.229363799095153809e-02,-1.948608085513114929e-02,-5.196344852447509766e-02,2.851766906678676605e-02,1.777966022491455078e-01,7.516706734895706177e-02,1.108415946364402771e-01,-2.359906025230884552e-02,8.162919431924819946e-03,8.185710012912750244e-02,3.398131951689720154e-02,6.264989078044891357e-02,5.657185241580009460e-02,-1.090982630848884583e-01,-1.141450777649879456e-01,-1.825372427701950073e-01,-5.568539723753929138e-02,2.976161986589431763e-02,-1.579250395298004150e-01,-8.941672742366790771e-02,-4.772908613085746765e-02,-7.557784765958786011e-02,5.068091675639152527e-03,-1.438952684402465820e-01,-1.477535367012023926e-01,-1.465489119291305542e-01,-1.659973561763763428e-01,-7.057469338178634644e-02,-6.966471672058105469e-02,-2.885546386241912842e-01,-3.001243770122528076e-01,-2.305036932229995728e-01,-2.324217706918716431e-01,-5.059069022536277771e-02,-7.236939668655395508e-02,-1.861268579959869385e-01,-1.496820002794265747e-01,-1.432501077651977539e-01,3.166320547461509705e-02,5.350082740187644958e-02,8.648207783699035645e-02,1.542545706033706665e-01,1.333102285861968994e-01,-2.419815398752689362e-02,-6.732406467199325562e-02,5.164297670125961304e-02,1.776463240385055542e-01,1.095693781971931458e-01,-1.385914087295532227e-01,3.826487064361572266e-02,-1.337220799177885056e-02,-5.425734817981719971e-02,1.136477589607238770e-01,-9.867607057094573975e-02,-6.322757899761199951e-02,-2.815902233123779297e-02,4.360777884721755981e-02,-2.301559410989284515e-02,5.678198486566543579e-02,4.593253508210182190e-02,1.959678679704666138e-01,3.787115216255187988e-02,2.825852483510971069e-02,8.111000806093215942e-02,2.329064756631851196e-01,2.023472189903259277e-01,3.363298475742340088e-01,2.015690058469772339e-01,7.981464266777038574e-02,4.528859257698059082e-02,1.450133770704269409e-01,1.566770672798156738e-01,1.871109157800674438e-01,7.036823034286499023e-02,-6.204134225845336914e-02,-3.744303435087203979e-02,-9.991233795881271362e-02,-2.736458480358123779e-01,2.907184138894081116e-02,8.648221194744110107e-02,4.593150317668914795e-02,7.619132846593856812e-02,7.300774101167917252e-03,1.295359581708908081e-01,1.253159493207931519e-01,1.025460138916969299e-01,2.000743001699447632e-01,1.351792365312576294e-01,-1.020780429244041443e-01,-1.917748898267745972e-02,-4.169688373804092407e-02,1.015883684158325195e-01,9.551627933979034424e-02,-2.035311460494995117e-01,-2.038662135601043701e-01,-1.627971976995468140e-01,-1.068567708134651184e-01,-1.167265176773071289e-01,1.626789942383766174e-02,1.235460415482521057e-01,1.711973845958709717e-01,1.032047793269157410e-01,-4.021615895908325911e-04,-8.922820538282394409e-02,-7.847166061401367188e-02,5.720506981015205383e-02,3.863419592380523682e-02,7.337844371795654297e-02,-3.406201004981994629e-01,-1.403636634349822998e-01,-5.084208026528358459e-02,-9.977610409259796143e-02,-3.823200985789299011e-02,1.931454688310623169e-01,9.818236529827117920e-02,5.217239260673522949e-02,1.288187969475984573e-02,-5.374729633331298828e-02,2.254174947738647461e-01,1.373735219240188599e-01,1.644760370254516602e-01,-4.576255101710557938e-03,-1.062067002058029175e-01,-7.676523178815841675e-02,-1.362351700663566589e-02,-1.072142198681831360e-01,-1.263850331306457520e-01,1.549892872571945190e-02,-6.011094152927398682e-02,-7.510053366422653198e-02,-1.324785053730010986e-01,-8.328620344400405884e-02,3.326524049043655396e-02,1.499111950397491455e-01,6.382559239864349365e-02,1.912250965833663940e-01,4.507848247885704041e-02,1.154631078243255615e-01,6.996817141771316528e-02,7.770444452762603760e-02,1.015358418226242065e-01,1.127058789134025574e-01,7.258832454681396484e-02,-5.321646109223365784e-02,-1.022227331995964050e-01,-1.150560006499290466e-01,-1.583669632673263550e-01,-1.873684674501419067e-01,5.365238711237907410e-02,2.370082307606935501e-03,8.981087803840637207e-02,-5.333452299237251282e-02,-5.941554158926010132e-02,-9.391348063945770264e-02,-1.149470433592796326e-01,-1.813559234142303467e-01,-1.126911416649818420e-01,-8.237332804128527641e-04,3.588243946433067322e-02,-9.142368286848068237e-02,-5.211289972066879272e-02,5.256343260407447815e-02,-2.302607521414756775e-02,1.537682581692934036e-02,1.571738123893737793e-01,1.204834282398223877e-01,-3.123088274151086807e-03,-5.211703479290008545e-02,2.348989062011241913e-02,9.126670658588409424e-02,2.180329151451587677e-02,-9.100948460400104523e-03,-5.896900221705436707e-02,7.225230336189270020e-02,-9.511513262987136841e-02,1.473238319158554077e-01,1.218338161706924438e-01,1.873989999294281006e-01,-1.619640737771987915e-02,1.539314538240432739e-01,1.584662199020385742e-01,7.510770857334136963e-02,4.249564930796623230e-02,-1.795680224895477295e-01,-1.544894576072692871e-01,-1.808649301528930664e-01,-1.119759529829025269e-01,-1.606025546789169312e-01,-1.824957728385925293e-01,-1.804792135953903198e-01,-1.550532430410385132e-01,-1.322116255760192871e-01,-1.186046749353408813e-01,-1.220965310931205750e-01,-1.365999728441238403e-01,5.513496324419975281e-02,-1.979059539735317230e-03,-7.137482613325119019e-02,1.300194393843412399e-02,-1.614674329757690430e-01,-2.384210750460624695e-02,6.389585323631763458e-04,-1.064573973417282104e-02,9.619780816137790680e-03,1.569403558969497681e-01,1.737174391746520996e-01,1.086464822292327881e-01,6.495530903339385986e-02,-4.591293167322874069e-03,4.906332492828369141e-02,3.003758378326892853e-02,-4.856318701058626175e-03,-1.239284873008728027e-02,2.696034125983715057e-02,3.492457419633865356e-02,3.383636474609375000e-02,-2.667522989213466644e-02,1.922515220940113068e-02,5.655334144830703735e-02,1.765310168266296387e-01,6.572757661342620850e-02,1.543438136577606201e-01,7.154663652181625366e-02,-1.218997687101364136e-01,4.475716128945350647e-02,1.196179538965225220e-02,5.050107464194297791e-02,3.016445972025394440e-02,-6.216676533222198486e-02,-4.768164455890655518e-02,-1.981645077466964722e-02,1.069787368178367615e-01,-1.418529357761144638e-02,-5.397165194153785706e-02,-1.521279811859130859e-01,-1.771360337734222412e-01,-8.857962489128112793e-02,-5.006149411201477051e-02,1.150158643722534180e-01,1.610959507524967194e-02,5.602620914578437805e-02,-5.969967320561408997e-02,5.721637234091758728e-02,7.924775034189224243e-02,1.003203094005584717e-01,1.229234263300895691e-01,9.148278087377548218e-02,9.659787267446517944e-02,6.131438165903091431e-02,-9.647716581821441650e-02,2.934521064162254333e-02,4.242287576198577881e-02,-6.650594994425773621e-03,3.945478424429893494e-02,-5.061961710453033447e-03,2.523436956107616425e-02,1.098491474986076355e-01,1.266494989395141602e-01,1.954280138015747070e-01,3.104109168052673340e-01,2.042210400104522705e-01,9.232651442289352417e-02,4.993647336959838867e-02,-7.914567738771438599e-02,-3.618199378252029419e-02,-1.301211714744567871e-01,-1.572430580854415894e-01,5.062215402722358704e-02,-2.011080086231231689e-01,-2.050084471702575684e-01,-2.588925063610076904e-01,1.095661520957946777e-02,1.033066213130950928e-01,1.186114177107810974e-01,-9.984720498323440552e-02,-1.782818734645843506e-01,-1.716459542512893677e-01,9.747347235679626465e-02,-1.157858818769454956e-01,-1.487967222929000854e-01,-6.977865844964981079e-02,7.867501676082611084e-02,1.233430281281471252e-01,7.164003793150186539e-03,2.211472019553184509e-02,1.137477457523345947e-01,1.600845903158187866e-01,1.345852315425872803e-01,2.878682687878608704e-02,1.452980041503906250e-01,1.277745515108108521e-01,5.960443988442420959e-02,4.161308705806732178e-02,-3.895389288663864136e-02,3.389392048120498657e-02,-5.393097922205924988e-02,-1.488922536373138428e-02,-1.324873715639114380e-01,2.806903235614299774e-02,7.175473868846893311e-02,-8.693592250347137451e-02,-6.682796031236648560e-02,3.762179613113403320e-02,-5.723225697875022888e-02,-1.413247287273406982e-01,-1.557620316743850708e-01,-4.966103658080101013e-02,1.810749620199203491e-01,-9.724122285842895508e-02,-8.721303939819335938e-02,1.142939999699592590e-01,2.112939953804016113e-02,1.294012218713760376e-01,4.343364760279655457e-02,5.177374929189682007e-02,1.746239364147186279e-01,8.895839005708694458e-02,4.141578823328018188e-02,3.788765892386436462e-02,8.241479843854904175e-02,1.503040455281734467e-02,-6.493735313415527344e-02,-1.803443878889083862e-01,-1.243300270289182663e-02,-3.324653580784797668e-02,-5.129218101501464844e-03,1.412566453218460083e-01,-3.511300683021545410e-02,9.559787064790725708e-02,1.917100250720977783e-01,1.519403159618377686e-01,1.583620160818099976e-01,-1.248192340135574341e-01,3.801693767309188843e-02,1.323522478342056274e-01,-2.122797444462776184e-02,-3.620344772934913635e-02,-9.658464789390563965e-02,-1.224200800061225891e-01,-1.461331993341445923e-01,-3.875476866960525513e-02,-5.559111014008522034e-02,-4.899094626307487488e-02,-8.451783657073974609e-02,-1.364934891462326050e-01,-5.628598108887672424e-02,-3.773811040446162224e-03,-4.851662367582321167e-02,-8.670130372047424316e-02,-2.008993774652481079e-01,-5.536640807986259460e-02,-3.497318923473358154e-02,1.053827777504920959e-01,-1.941519416868686676e-02,8.843129128217697144e-02,1.078712716698646545e-01,2.217814773321151733e-01,3.884457424283027649e-02,6.132083758711814880e-02,1.856324076652526855e-01,1.639305204153060913e-01,-8.610576391220092773e-02,-1.419027447700500488e-01,5.690202862024307251e-02,2.804149640724062920e-03,-1.950958818197250366e-01,-1.017994806170463562e-01,7.105565816164016724e-02,-1.289211958646774292e-01,-1.397391855716705322e-01,-1.216532066464424133e-01,-1.425015330314636230e-01,-6.603354215621948242e-02,3.659478202462196350e-02,-4.754209518432617188e-02,-3.747091069817543030e-02,-7.768630236387252808e-02,-1.693840138614177704e-03,-6.853049248456954956e-02,-5.784876644611358643e-02,-1.431890577077865601e-01,-6.213240697979927063e-02,-9.709300845861434937e-02,-1.159984320402145386e-01,-1.264204233884811401e-01,-1.278914660215377808e-01,-4.001398757100105286e-02,3.591132536530494690e-02,8.390394970774650574e-03,1.429169997572898865e-02,6.037297472357749939e-02,-2.937428653240203857e-02,8.913259208202362061e-02,1.387716382741928101e-01,2.168106287717819214e-02,8.665505796670913696e-02,4.101265221834182739e-02,-6.536079570651054382e-03,-2.221465297043323517e-02,1.695074327290058136e-02,-2.583610080182552338e-02,3.533699363470077515e-02,-1.203051432967185974e-01,-6.655218545347452164e-03,4.718765616416931152e-02,1.039778664708137512e-01,1.884815841913223267e-01,-3.616723697632551193e-03,-1.747793145477771759e-02,1.217408105731010437e-01,1.353861242532730103e-01,-1.770211309194564819e-01,-2.885099351406097412e-01,5.451900884509086609e-02,-2.638210356235504150e-02,-3.011216223239898682e-01,-3.113829493522644043e-01,-1.395893841981887817e-01,-1.935356408357620239e-01,-3.248775005340576172e-01,-2.681537270545959473e-01,-1.418932247906923294e-02,1.516714245080947876e-01,1.101395022124052048e-02,7.020669430494308472e-02,-9.954829514026641846e-02,-8.780898898839950562e-02,7.629781030118465424e-04,1.128347683697938919e-02,9.068085253238677979e-02,1.393342041410505772e-03,8.985807187855243683e-03,-1.070161983370780945e-01,-1.117436494678258896e-02,5.997178610414266586e-03,3.177685290575027466e-02,-4.770369082689285278e-02,-9.716641157865524292e-02,-8.170393854379653931e-02,-8.005224913358688354e-02,5.787912756204605103e-02,4.417503252625465393e-02,2.608449943363666534e-02,-9.410697966814041138e-03,1.757497712969779968e-02,9.856998920440673828e-02,1.382501572370529175e-01,6.909269094467163086e-02,5.304417386651039124e-02,-3.076649829745292664e-02,-2.040526829659938812e-02,-4.813140630722045898e-02,-3.597070276737213135e-02,3.643607348203659058e-02,-1.736676553264260292e-03,9.168271720409393311e-02,-8.946558088064193726e-02,-1.910688132047653198e-01,-1.172035839408636093e-02,-7.341939490288496017e-03,1.160885170102119446e-01,-6.782521307468414307e-02,-2.291240394115447998e-01,1.535656396299600601e-02,2.997527830302715302e-02,1.371956765651702881e-01,-9.538539685308933258e-03,8.316995203495025635e-02,-9.945486485958099365e-02,-5.047491285949945450e-03,4.763717204332351685e-02,1.343255192041397095e-01,7.457232475280761719e-02,-6.013294309377670288e-02,-4.647843167185783386e-02,7.245918363332748413e-02,9.177841246128082275e-02,4.774098843336105347e-02,-3.686315193772315979e-02,-1.265414506196975708e-01,-3.580935299396514893e-01,-1.084662303328514099e-01,6.793447583913803101e-02,1.885782033205032349e-01,-1.932954639196395874e-01,-4.687511920928955078e-01,-3.843280076980590820e-01,-1.715705245733261108e-01,1.701820641756057739e-01,-4.136844724416732788e-02,-3.132986724376678467e-01,-3.884826004505157471e-01,-2.200116664171218872e-01,5.695023387670516968e-02,1.003345102071762085e-01,-1.805776953697204590e-01,-6.794169545173645020e-02,6.552945077419281006e-02,-2.917291782796382904e-02,-8.593546599149703979e-02,-9.039933234453201294e-02,-2.486438676714897156e-02,3.483289852738380432e-03,-5.563959712162613869e-04,-1.030364260077476501e-01,-2.468460202217102051e-01,-1.911859959363937378e-01,1.448188722133636475e-01,6.883630156517028809e-02,-1.764837056398391724e-01,-3.657222092151641846e-01,-3.257323205471038818e-01,-1.404449492692947388e-01,-1.270986646413803101e-01,-2.941358983516693115e-01,-3.032135665416717529e-01,-3.515775203704833984e-01,-2.210590988397598267e-01,-4.535793140530586243e-02,-9.294042736291885376e-02,-1.043302863836288452e-01,-8.667696267366409302e-03,4.179059714078903198e-02,3.604585304856300354e-02,-5.419820919632911682e-02,-1.973610967397689819e-01,-1.790837943553924561e-01,6.688759475946426392e-02,1.732130646705627441e-01,1.610427647829055786e-01,3.059011511504650116e-02,-2.192372679710388184e-01,-1.371414959430694580e-01,-8.660680614411830902e-03,1.890810132026672363e-01,1.747034788131713867e-01,-1.132338047027587891e-01,-2.895256280899047852e-01,-1.952551305294036865e-02,1.928130164742469788e-02,1.769010573625564575e-01,1.745368242263793945e-01,-3.169769421219825745e-02,-1.046802103519439697e-01,2.100510057061910629e-03,1.224426925182342529e-02,1.712125837802886963e-01,1.593622565269470215e-01,7.740984857082366943e-02,1.356083750724792480e-01,2.285918742418289185e-01,-2.348411269485950470e-02,-1.315201073884963989e-01,-1.756747066974639893e-01,1.775499805808067322e-02,2.973251342773437500e-01,1.777842938899993896e-01,-5.504184961318969727e-02,-1.455644369125366211e-01,-2.365917116403579712e-01,2.197341807186603546e-02,2.942880392074584961e-01,3.541481792926788330e-01,-6.230993196368217468e-02,-1.349940299987792969e-01,-1.008518785238265991e-01,5.871511623263359070e-02,3.627240955829620361e-01,1.861068159341812134e-01,1.075760275125503540e-01,-3.609053045511245728e-02,-1.296999603509902954e-01,6.475550681352615356e-02,1.241193562746047974e-01,-8.545908145606517792e-03,-1.784119307994842529e-01,-6.130364164710044861e-02,7.969024777412414551e-02,-7.012911885976791382e-02,-9.490045160055160522e-02,-1.147654876112937927e-01,-7.682149112224578857e-02,1.386813521385192871e-01,-9.849185496568679810e-02,-1.897006630897521973e-01,-1.792517453432083130e-01,9.140100330114364624e-02,1.031280606985092163e-01,-1.517132818698883057e-01,-9.289422631263732910e-02,-1.882881820201873779e-01,-4.407051205635070801e-02,6.626360863447189331e-02,3.077318146824836731e-02,1.627998240292072296e-02,4.280816356185823679e-04,2.495614439249038696e-02,8.138006925582885742e-02,3.641119971871376038e-02,-5.886876210570335388e-02,-3.342661261558532715e-02,-6.612333655357360840e-02,4.262086376547813416e-02,2.312551997601985931e-02,-6.765126436948776245e-02,-2.450172901153564453e-01,6.745829246938228607e-03,1.364684551954269409e-01,-6.986441463232040405e-02,-1.542592048645019531e-01,-1.178601682186126709e-01,-4.795614257454872131e-02,1.482972651720046997e-01,-4.873747006058692932e-02,-1.561075299978256226e-01,-1.080776154994964600e-01,1.062244400382041931e-01,1.489124745130538940e-01,-1.325742304325103760e-01,-1.021024733781814575e-01,-6.081818416714668274e-02,-2.289419062435626984e-02,6.442301720380783081e-02,-5.517039820551872253e-02,1.511686295270919800e-01,-2.531994320452213287e-02,1.040749028325080872e-01,-3.974990546703338623e-02,1.122320219874382019e-01,6.723220646381378174e-02,7.971132546663284302e-02,-1.878310181200504303e-02,-4.532627761363983154e-02,1.175089627504348755e-01,1.071590557694435120e-01,1.690093614161014557e-02,3.118460625410079956e-02,-1.727352589368820190e-01,3.804358839988708496e-02,9.482495486736297607e-02,9.800386428833007812e-02,7.378618419170379639e-02,-1.723871082067489624e-01,1.205626577138900757e-01,2.335401996970176697e-02,5.474663898348808289e-02,4.434935003519058228e-02,-5.769820883870124817e-02,2.743520215153694153e-02,-4.041829705238342285e-02,-5.895449221134185791e-02,-1.348198112100362778e-02,-3.240698948502540588e-02,3.727906942367553711e-02,2.218544716015458107e-03,7.673329859972000122e-02,-3.120824880897998810e-02,-2.683409303426742554e-02,1.292681694030761719e-01,3.714045882225036621e-02,1.983154937624931335e-02,-7.671257108449935913e-02,-2.028270214796066284e-01,1.337919533252716064e-01,7.879827171564102173e-02,1.037635952234268188e-01,4.150912631303071976e-03,-1.774073243141174316e-01,1.587392687797546387e-01,1.228324789553880692e-02,4.427163675427436829e-02,-3.520783036947250366e-02,-1.215532943606376648e-01,-3.300746902823448181e-03,-2.539611048996448517e-02,2.472232654690742493e-02,-1.139130722731351852e-02,1.829062215983867645e-02,-1.970575656741857529e-03,-1.191598176956176758e-01,-1.570199131965637207e-01,1.243668347597122192e-01,1.327869296073913574e-01,-1.838995702564716339e-02,-6.333334743976593018e-02,-1.933066993951797485e-01,9.931820631027221680e-02,1.363120526075363159e-01,6.144444458186626434e-03,-1.453494578599929810e-01,-1.571486443281173706e-01,2.349952235817909241e-02,1.766532957553863525e-01,-3.432071954011917114e-02,-1.258465647697448730e-01,-1.495516896247863770e-01,2.054634131491184235e-02,1.825885772705078125e-01,1.720790937542915344e-02,5.368601530790328979e-02,-7.013899832963943481e-02,-1.526955217123031616e-01,-4.018664360046386719e-02,4.012134671211242676e-02,1.985327154397964478e-01,5.474614724516868591e-02,-5.552505329251289368e-02,-1.816305518150329590e-01,1.023485437035560608e-01,1.523325592279434204e-01,9.537795931100845337e-02,-1.655043512582778931e-01,-1.354807466268539429e-01,2.418054640293121338e-02,-4.137761890888214111e-02,-2.593472786247730255e-02,-2.036808282136917114e-01,-2.776224315166473389e-01,-2.783988974988460541e-02,4.151983931660652161e-02,1.251366138458251953e-01,-1.711819618940353394e-01,-1.030091121792793274e-01,-2.843558089807629585e-03,1.949638500809669495e-02,1.269653141498565674e-01,1.287620961666107178e-01,1.370830088853836060e-01,1.304153949022293091e-01,5.375086516141891479e-02,1.763503849506378174e-01,6.585244834423065186e-02,2.960132993757724762e-02,7.955082505941390991e-02,5.375072732567787170e-02,9.205684065818786621e-02,8.839720860123634338e-03,-7.693874835968017578e-02,-6.593857705593109131e-02,-8.849489688873291016e-02,-6.776314228773117065e-02,-1.358784735202789307e-01,-1.100439950823783875e-01,-1.386515498161315918e-01,-6.057247146964073181e-02,-6.257609277963638306e-02,-1.139562949538230896e-02,6.761745363473892212e-02,-1.516387164592742920e-01,-9.567008912563323975e-02,-6.197074428200721741e-02,3.315700218081474304e-02,7.681316137313842773e-02,2.068326575681567192e-03,6.875500828027725220e-02,6.636435538530349731e-02,8.033767342567443848e-02,1.241609677672386169e-01,1.366584599018096924e-01,1.485567092895507812e-01,1.504508107900619507e-01,1.184786949306726456e-02,2.052552998065948486e-02,6.893077399581670761e-03,1.102277636528015137e-02,-1.028558164834976196e-01,-3.295245021581649780e-02,-7.858987152576446533e-02,-1.281352639198303223e-01,-1.292833834886550903e-01,-9.747914224863052368e-02,-4.308832436800003052e-02,-7.772536575794219971e-02,-1.075866892933845520e-01,-7.172317057847976685e-02,-4.240299016237258911e-02,-9.570062160491943359e-02,-2.296907082200050354e-02,-1.405717134475708008e-01,-1.445177644491195679e-01,-6.245677173137664795e-02,-5.029727891087532043e-02,-3.336089104413986206e-02,-2.131056934595108032e-01,-9.454928338527679443e-02,-3.073432296514511108e-02,2.109656855463981628e-02,-2.137647755444049835e-02,-1.172499060630798340e-01,9.445919841527938843e-02,-1.910624280571937561e-02,3.445566073060035706e-02,5.011161789298057556e-02,4.818539693951606750e-02,6.227885931730270386e-02,6.316803395748138428e-02,-4.364128038287162781e-02,-4.350836202502250671e-02,3.680155426263809204e-02,6.043828651309013367e-02,-1.983711868524551392e-02,-8.568779379129409790e-02,-1.461727768182754517e-01,8.445809036493301392e-02,-2.517820335924625397e-02,4.976473003625869751e-02,7.596170157194137573e-02,7.733929157257080078e-02,-1.112535148859024048e-01,-1.157430037856101990e-01,-3.320636972784996033e-02,1.306322310119867325e-02,3.307583928108215332e-02,-5.924659967422485352e-02,8.447725325822830200e-02,3.317971825599670410e-01,2.774475514888763428e-01,2.024058401584625244e-01,2.374063581228256226e-01,2.399405092000961304e-01,3.220109641551971436e-01,9.778574854135513306e-02,5.166178941726684570e-02,6.903764326125383377e-03,-7.714004069566726685e-02,-1.810018718242645264e-02,-5.500239133834838867e-02,-5.849599093198776245e-02,-1.020074337720870972e-01,-6.861307658255100250e-03,-4.595139622688293457e-02,-2.515769563615322113e-02,2.301344089210033417e-02,1.016211509704589844e-01,1.004509478807449341e-01,1.728274486958980560e-02,5.511169880628585815e-02,2.184819802641868591e-02,3.051118366420269012e-02,1.111547127366065979e-01,4.157555848360061646e-02,6.268845871090888977e-03,8.759225904941558838e-02,-7.534667849540710449e-02,-1.461566239595413208e-01,-1.496706008911132812e-01,-8.447175472974777222e-02,-1.177846193313598633e-01,-6.684142630547285080e-03,-9.344413876533508301e-03,-5.319089442491531372e-02,9.465699084103107452e-03,-1.126292049884796143e-01,1.547737717628479004e-01,1.279714237898588181e-02,1.533491630107164383e-02,-7.803417742252349854e-02,-8.412925899028778076e-02,-1.178346648812294006e-01,-8.855459094047546387e-02,-1.025345697999000549e-01,-7.577621936798095703e-02,4.663395509123802185e-02,-2.026041895151138306e-01,-7.885617017745971680e-02,1.295813322067260742e-01,6.707596033811569214e-02,1.079723313450813293e-01,2.204447835683822632e-01,2.214423567056655884e-01,9.145571291446685791e-02,-3.495151549577713013e-02,-1.496852934360504150e-01,-1.927326917648315430e-01,-1.534938365221023560e-01,-1.215141564607620239e-01,-5.323497578501701355e-02,-1.619908213615417480e-01,-1.930919289588928223e-01,-1.573829203844070435e-01,-1.257268935441970825e-01,-2.063686847686767578e-01,-1.111516356468200684e-01,-5.410661920905113220e-02,-3.973772376775741577e-02,-1.452985852956771851e-01,-9.978207945823669434e-02,1.002314984798431396e-01,-7.857362926006317139e-02,3.008444048464298248e-02,-1.605475507676601410e-02,2.033897303044795990e-02,-2.290584519505500793e-02,1.042549237608909607e-01,4.339307919144630432e-02,-1.600196771323680878e-02,4.526413604617118835e-02,-3.256711736321449280e-02,-1.495848894119262695e-01,-1.542045921087265015e-02,5.426056683063507080e-02,7.643949706107378006e-03,4.082754626870155334e-02,-2.102273553609848022e-01,-9.312961250543594360e-02,-4.287291318178176880e-02,-2.392520383000373840e-02,-1.283998638391494751e-01,-1.243866533041000366e-01,-1.369392424821853638e-01,-1.468966454267501831e-01,-6.417123228311538696e-02,-2.089496515691280365e-02,-1.074647083878517151e-01,-8.777843788266181946e-03,-1.062934026122093201e-01,1.664484106004238129e-02,7.674320042133331299e-02,9.574475139379501343e-02,2.258144691586494446e-02,9.537047892808914185e-02,2.263328991830348969e-02,1.178156584501266479e-01,1.971507370471954346e-01,5.655664578080177307e-02,7.376969605684280396e-02,1.039344444870948792e-01,2.572740316390991211e-01,3.629643842577934265e-02,4.469394311308860779e-02,4.229544103145599365e-02,1.690046936273574829e-01,1.921032220125198364e-01,-7.572095096111297607e-02,3.255345672369003296e-02,6.165571510791778564e-02,6.299923360347747803e-02,4.754815995693206787e-02,-3.374977782368659973e-02,4.600548744201660156e-02,-2.489418163895606995e-02,-6.726939976215362549e-02,4.679320752620697021e-02,1.594009064137935638e-02,-3.143216669559478760e-02,-9.009108692407608032e-02,-1.602922528982162476e-01,-6.348848342895507812e-02,1.005160808563232422e-01,-1.729451306164264679e-02,4.755441099405288696e-02,9.779553860425949097e-03,5.633720010519027710e-02,1.227450221776962280e-01,1.299987137317657471e-01,1.157961934804916382e-01,2.768091559410095215e-01,3.031369447708129883e-01,7.621526718139648438e-02,2.900716289877891541e-02,1.574158668518066406e-01,1.397653222084045410e-01,2.141842395067214966e-01,1.219182908535003662e-01,-2.646817301865667105e-04,-9.288712404668331146e-03,4.889527708292007446e-02,2.108936198055744171e-02,8.593198657035827637e-02,4.869211092591285706e-02,-6.773789227008819580e-02,-1.188661903142929077e-01,7.473895326256752014e-03,-1.423064898699522018e-02,3.873804584145545959e-02,1.480764448642730713e-01,-1.200320571660995483e-02,3.169977292418479919e-02,-1.639270968735218048e-02,-2.003256976604461670e-02,1.274625654332339764e-03,-7.124915719032287598e-02,-1.275712400674819946e-01,-1.600450128316879272e-01,-1.862154006958007812e-01,-6.731219589710235596e-02,-1.411171704530715942e-01,-7.897935807704925537e-02,3.096658363938331604e-02,-8.486541360616683960e-02,-6.757935881614685059e-02,-5.191907659173011780e-02,-1.460594590753316879e-02,6.629972159862518311e-02,9.769734740257263184e-02,2.241625264286994934e-02,7.904749363660812378e-02,-1.055578421801328659e-02,3.585748001933097839e-02,-8.172935247421264648e-02,-5.486769974231719971e-02,-5.410474911332130432e-02,-8.264037780463695526e-03,6.362891942262649536e-02,-1.620272919535636902e-02,7.661974430084228516e-02,1.252821832895278931e-01,1.984156221151351929e-01,3.163953870534896851e-02,4.053729027509689331e-02,-4.100740887224674225e-03,-2.802816778421401978e-02,1.256577372550964355e-01,-8.501027524471282959e-02,3.940948843955993652e-02,7.451562583446502686e-02,-5.238018557429313660e-02,-1.200564205646514893e-01,-4.080228880047798157e-02,6.095522269606590271e-02,1.556757539510726929e-01,-3.424849733710289001e-02,3.214626759290695190e-02,7.374943047761917114e-02,1.262213140726089478e-01,4.271423444151878357e-02,-2.205428779125213623e-01,-1.527445763349533081e-02,3.557224944233894348e-02,1.170152723789215088e-01,-6.429193168878555298e-02,-1.877306550741195679e-01,6.576756387948989868e-02,8.861709386110305786e-02,2.177003957331180573e-02,-7.469060271978378296e-02,-1.436404436826705933e-01,1.436848044395446777e-01,8.892081677913665771e-02,5.900733917951583862e-02,-6.956569105386734009e-02,-3.955588489770889282e-02,1.461018472909927368e-01,-3.342613577842712402e-02,3.086453117430210114e-02,1.807101885788142681e-03,-3.425478935241699219e-02,2.450728788971900940e-02,3.958515822887420654e-02,1.684666126966476440e-01,1.238117888569831848e-01,-1.874925941228866577e-01,-1.048689708113670349e-01,1.675748676061630249e-01,1.853959560394287109e-01,-9.905787557363510132e-02,-2.228051424026489258e-01,1.700277440249919891e-02,1.207396462559700012e-01,1.711913011968135834e-02,-1.436789780855178833e-01,-1.078587919473648071e-01,6.527040898799896240e-02,1.092938557267189026e-01,1.291570961475372314e-01,-1.361234486103057861e-01,-3.865519165992736816e-02,3.586310520768165588e-02,9.578155726194381714e-02,1.191679621115326881e-03,-5.367646366357803345e-02,3.368648514151573181e-02,7.741788029670715332e-02,1.033058613538742065e-01,-2.223558351397514343e-02,-7.027214020490646362e-02,9.847147017717361450e-02,1.539740413427352905e-01,9.922426939010620117e-02,-7.645118981599807739e-02,1.037690788507461548e-01,1.353872418403625488e-01,-4.829596728086471558e-02,-1.478520454838871956e-03,-5.922272801399230957e-02,3.953418135643005371e-02,7.919307798147201538e-03,-7.833380252122879028e-02,-8.675109595060348511e-03,-1.142367720603942871e-02,-9.296787530183792114e-02,-1.673479080200195312e-01,3.373204544186592102e-02,-8.543011732399463654e-03,-3.537426516413688660e-02,-8.173482120037078857e-02,4.853640869259834290e-02,3.119599819183349609e-02,1.063929572701454163e-01,-1.988029181957244873e-01,-1.550668179988861084e-01,8.924596756696701050e-02,1.372440606355667114e-01,-2.643172862008213997e-03,-2.492164075374603271e-01,-1.913707256317138672e-01,1.457248181104660034e-01,5.283161252737045288e-02,-2.204783260822296143e-01,-3.461844325065612793e-01,-7.876665145158767700e-02,-1.541141327470541000e-02,-5.659875646233558655e-02,-2.776138186454772949e-01,-1.873364895582199097e-01,-5.484300851821899414e-02,5.858295410871505737e-02,-8.266671560704708099e-03,-1.157216206192970276e-01,1.187776448205113411e-03,7.530348002910614014e-02,3.006742335855960846e-02,6.616849452257156372e-02,5.470838770270347595e-02,8.382508903741836548e-02,-9.247564524412155151e-02,-7.702203467488288879e-03,-2.693040482699871063e-02,1.281674653291702271e-01,7.556807994842529297e-02,-8.202412724494934082e-02,-1.646158099174499512e-01,7.342009246349334717e-02,9.599711000919342041e-02,3.871982917189598083e-02,-2.461937069892883301e-01,-1.759410798549652100e-01,2.596361935138702393e-02,1.009734068065881729e-02,1.473531220108270645e-02,-6.507091224193572998e-02,-1.222770381718873978e-02,1.359643489122390747e-01,5.879379063844680786e-02,-5.182232707738876343e-03,-1.169335842132568359e-01,-5.054322257637977600e-02,2.690427750349044800e-02,-2.424560934305191040e-01,-1.744312494993209839e-01,-1.100699454545974731e-01,1.299844831228256226e-01,4.295174777507781982e-02,-2.550911903381347656e-01,-1.924511641263961792e-01,1.507368087768554688e-01,1.854834258556365967e-01,-1.292119413847103715e-04,-2.620249092578887939e-01,5.214045941829681396e-02,2.601370215415954590e-01,1.357726454734802246e-01,-9.408937394618988037e-02,-1.608834564685821533e-01,1.803063973784446716e-02,1.345995813608169556e-01,1.088388934731483459e-01,-9.757075458765029907e-02,-1.847715526819229126e-01,5.295413546264171600e-03,4.679079353809356689e-02,1.262917183339595795e-02,-3.480752557516098022e-02,5.434332787990570068e-02,6.816350668668746948e-02,2.813035994768142700e-02,1.100143045186996460e-01,1.156359165906906128e-01,-1.068148016929626465e-01,-1.528643816709518433e-01,-9.622924029827117920e-02,-5.881594866514205933e-02,1.504050642251968384e-01,-1.975529938936233521e-01,-1.182830780744552612e-01,-4.518349468708038330e-02,-5.326118320226669312e-02,-7.146143913269042969e-02,-1.591749861836433411e-02,-7.216336205601692200e-03,-5.733183398842811584e-02,9.400132112205028534e-03,7.730803918093442917e-04,1.000446751713752747e-01,9.875547885894775391e-02,-3.597120195627212524e-02,8.666731417179107666e-02,1.424777954816818237e-01,1.035369038581848145e-01,9.539651870727539062e-02,-2.452030777931213379e-02,-1.945384405553340912e-02,2.067307569086551666e-02,-1.299852281808853149e-01,-2.226905524730682373e-02,6.268223375082015991e-02,8.533398061990737915e-02,6.424953788518905640e-02,-2.643442749977111816e-01,-1.732447594404220581e-01,-3.462142124772071838e-02,-1.799179613590240479e-02,-9.188037365674972534e-03,-7.004809379577636719e-02,-5.270639806985855103e-02,-1.073288172483444214e-01,-7.977544516324996948e-02,-1.876124739646911621e-02,-1.784793846309185028e-02,4.865458980202674866e-02,-6.242114119231700897e-03,6.538305897265672684e-03,-8.743062615394592285e-02,-1.311487704515457153e-01,-2.667368948459625244e-01,-3.341799378395080566e-01,-3.037053346633911133e-01,-2.259937822818756104e-01,2.059739269316196442e-02,-1.751500368118286133e-01,-1.589522212743759155e-01,-2.501452863216400146e-01,-1.567901670932769775e-01,2.955449186265468597e-02,2.256096713244915009e-02,-1.769363135099411011e-01,-1.636383533477783203e-01,-6.183563917875289917e-02,-1.760777086019515991e-02,-4.158542305231094360e-02,1.214015260338783264e-01,-3.289115056395530701e-02,8.940689265727996826e-02,5.752966552972793579e-02,8.279075473546981812e-02,1.124557927250862122e-01,6.353453546762466431e-02,9.368863701820373535e-02,-1.109531223773956299e-01,-2.536541819572448730e-01,-2.386301010847091675e-01,-6.933268904685974121e-02,-3.173216432332992554e-02,1.479393802583217621e-02,-3.029678389430046082e-02,-8.415380865335464478e-02,8.300093933939933777e-03,-2.788635902106761932e-02,2.166944295167922974e-01,2.382935434579849243e-01,3.884224221110343933e-02,1.668295860290527344e-01,6.706417072564363480e-03,1.158505007624626160e-01,3.156545758247375488e-02,1.780065745115280151e-01,1.809875816106796265e-01,2.632486224174499512e-01,-4.366315156221389771e-02,-1.449313946068286896e-02,7.901512831449508667e-02,1.830214262008666992e-01,-3.034185618162155151e-02,7.305008172988891602e-02,1.695949733257293701e-01,1.529042273759841919e-01,8.493862301111221313e-02,-1.054625287652015686e-01,1.113770827651023865e-01,1.399336159229278564e-01,1.619371771812438965e-01,1.433806717395782471e-01,1.546309143304824829e-01,-9.016412496566772461e-02,-6.916621327400207520e-02,-8.352165110409259796e-03,6.642042845487594604e-02,9.646314382553100586e-02,-1.675699800252914429e-01,-2.824550867080688477e-01,-1.822855174541473389e-01,-2.178905904293060303e-01,-1.172205954790115356e-01,-6.349968910217285156e-02,-1.341967582702636719e-01,-5.968748778104782104e-02,-1.071723401546478271e-01,-1.909422725439071655e-01,-7.218917459249496460e-02,-8.739723265171051025e-02,5.933400616049766541e-02,6.834376603364944458e-02,1.490260213613510132e-01,-2.681373655796051025e-01,-2.244020700454711914e-01,-1.532126069068908691e-01,-2.027371339499950409e-02,7.558366656303405762e-02,5.904665589332580566e-02,4.402579739689826965e-02,-7.756175845861434937e-02,-1.683031916618347168e-01,-2.051063627004623413e-01,2.288367599248886108e-01,8.889664709568023682e-02,2.077328115701675415e-01,1.273921728134155273e-01,-9.785217233002185822e-03,4.941366240382194519e-02,9.865655750036239624e-02,1.109983250498771667e-01,1.521772891283035278e-01,1.349404156208038330e-01,4.808761179447174072e-02,9.425043314695358276e-02,6.225083768367767334e-02,-2.047518268227577209e-02,-1.976610273122787476e-01,-7.184696942567825317e-02,-7.649782299995422363e-02,-1.588141024112701416e-01,-4.769742116332054138e-02,4.302102327346801758e-02,-5.860838666558265686e-02,-1.256469730287790298e-02,-5.936780944466590881e-02,1.037225872278213501e-01,6.413891911506652832e-02,9.701919555664062500e-02,5.108570680022239685e-02,1.139943525195121765e-01,1.007326319813728333e-01,1.196168661117553711e-01,3.952180594205856323e-02,4.883001372218132019e-02,3.458403982222080231e-03,9.758840315043926239e-03,-6.030263379216194153e-02,-4.643654450774192810e-02,6.021943315863609314e-02,1.179333105683326721e-01,-2.313007786870002747e-02,-8.046621829271316528e-02,-8.522538095712661743e-02,7.054726779460906982e-02,-6.253963708877563477e-02,5.567369982600212097e-02,3.636897727847099304e-02,-1.073492690920829773e-02,-1.589532792568206787e-01,-1.553777158260345459e-01,1.553013771772384644e-01,1.453999131917953491e-01,-4.697294905781745911e-02,3.578168898820877075e-02,6.369618326425552368e-02,1.209957376122474670e-01,1.134900376200675964e-01,-2.612099982798099518e-02,9.775802493095397949e-02,1.298782229423522949e-01,1.672213524580001831e-01,-6.167499348521232605e-02,-8.640152215957641602e-02,-3.572455048561096191e-01,-4.682728648185729980e-01,-4.663888514041900635e-01,-4.623417556285858154e-01,-1.650825440883636475e-01,-2.776007950305938721e-01,-3.331570625305175781e-01,-2.782818675041198730e-01,-4.236594140529632568e-01,-3.534316644072532654e-02,1.274089980870485306e-02,-2.090100012719631195e-02,-1.860271394252777100e-01,-2.468019723892211914e-01,1.112772598862648010e-01,1.038869470357894897e-01,6.686179339885711670e-02,1.144737973809242249e-01,1.161844283342361450e-01,3.438246622681617737e-02,-1.875003799796104431e-02,1.825252734124660492e-02,1.882119029760360718e-01,3.315230906009674072e-01,-5.020967125892639160e-02,-1.340759843587875366e-01,-1.472248435020446777e-01,-1.396520584821701050e-01,-2.845151722431182861e-01,1.587684080004692078e-02,2.565472014248371124e-02,7.068315893411636353e-02,-2.277655899524688721e-02,-1.580789089202880859e-01,1.673459261655807495e-01,2.186592072248458862e-01,1.117453053593635559e-01,-1.118943095207214355e-01,-5.140023231506347656e-01,2.762831747531890869e-01,1.507268249988555908e-01,1.538544446229934692e-01,-1.862753480672836304e-01,-2.849558293819427490e-01,1.693549007177352905e-01,1.524316370487213135e-01,8.876518905162811279e-02,-4.535870626568794250e-02,1.772552356123924255e-02,9.121788665652275085e-03,4.050253704190254211e-02,1.886701881885528564e-01,1.546223759651184082e-01,-2.356320247054100037e-02,-4.359366744756698608e-02,2.943833544850349426e-02,1.389878839254379272e-01,2.835155427455902100e-01,1.265519261360168457e-01,-8.133729919791221619e-03,-4.926254972815513611e-02,-1.402831673622131348e-01,1.356333345174789429e-01,9.158000349998474121e-02,-3.340901166666299105e-04,-8.457577228546142578e-02,-1.111333444714546204e-01,5.853408202528953552e-02,-9.722517430782318115e-02,3.036815486848354340e-02,5.628919601440429688e-02,-2.816882543265819550e-02,5.769645795226097107e-04,-1.075996905565261841e-01,5.169046297669410706e-02,8.494674414396286011e-02,-2.080702632665634155e-01,4.778480157256126404e-02,8.392378687858581543e-02,1.897273510694503784e-01,-4.469788447022438049e-02,-2.922060191631317139e-01,-1.714976131916046143e-01,-4.135951027274131775e-02,3.125483170151710510e-02,5.104517564177513123e-02,-3.748936206102371216e-02,-2.056813985109329224e-01,-2.140439450740814209e-01,1.402025371789932251e-01,1.793576925992965698e-01,-6.311174482107162476e-02,-4.567536115646362305e-01,-2.674079537391662598e-01,5.075695738196372986e-02,-1.222885120660066605e-02,-1.561455577611923218e-01,-2.848766148090362549e-01,-2.897348254919052124e-02,};

const data_t w_3_bias[16]={-9.912913665175437927e-03,2.639068663120269775e-02,9.529315680265426636e-02,9.370382758788764477e-04,9.218554012477397919e-03,8.814143948256969452e-03,-2.840146608650684357e-02,1.405370328575372696e-02,1.570383645594120026e-02,1.282277107238769531e-01,9.146799892187118530e-02,-8.355400711297988892e-02,1.140220463275909424e-01,8.148284256458282471e-02,2.355154417455196381e-02,3.514546528458595276e-02,};

const twoD_t w_3_weight_2d = {
                           .r =5,
                           .c = 5,
                           .in_channel = 6,
                           .channel = 16,
                           .data = w_3_weight,
                           .bias = w_3_bias
                       };

const data_t w_7_weight[48000]={4.322797805070877075e-02,5.064113438129425049e-02,3.706018254160881042e-02,-2.598791569471359253e-02,3.642169991508126259e-03,5.505069345235824585e-02,8.010389283299446106e-03,1.176651753485202789e-02,1.594444923102855682e-02,-7.655709236860275269e-02,5.944668874144554138e-02,5.757839232683181763e-02,-4.421377182006835938e-02,4.603442922234535217e-02,-4.934113100171089172e-02,-8.434069156646728516e-02,4.971789568662643433e-02,6.631547957658767700e-02,3.434847667813301086e-02,1.932615227997303009e-02,1.059615984559059143e-02,7.104409392923116684e-03,-2.302133850753307343e-02,8.292187005281448364e-02,1.971619576215744019e-02,-4.555311426520347595e-02,-1.758158020675182343e-02,6.594087928533554077e-02,-5.159494280815124512e-02,-5.142211169004440308e-02,-5.165435373783111572e-02,-1.462482661008834839e-02,9.785880334675312042e-03,-5.646493658423423767e-02,-6.382026523351669312e-02,-6.076177209615707397e-02,6.789236329495906830e-03,5.438965186476707458e-02,-9.495443850755691528e-02,-6.654021888971328735e-02,-6.002043560147285461e-02,3.437120467424392700e-03,6.280715763568878174e-02,-2.325866371393203735e-02,-2.352512814104557037e-02,-2.653768844902515411e-02,-2.659124555066227913e-03,-2.307582087814807892e-02,-6.937411148101091385e-03,7.927531003952026367e-02,-4.971860349178314209e-02,2.417498268187046051e-03,1.146532595157623291e-02,-6.393924355506896973e-02,-6.147997453808784485e-02,1.363411247730255127e-01,3.009643219411373138e-02,-9.525511413812637329e-03,-3.037944994866847992e-02,-7.143101096153259277e-02,1.605507880449295044e-01,-1.048741396516561508e-02,6.066806614398956299e-02,6.505013257265090942e-02,3.851682320237159729e-02,2.969384193420410156e-01,1.548286527395248413e-01,2.123788446187973022e-01,4.325882717967033386e-02,8.624947816133499146e-02,1.888749301433563232e-01,1.275303065776824951e-01,1.488028019666671753e-01,1.697296798229217529e-01,1.192554235458374023e-01,-2.301177242770791054e-03,1.724000461399555206e-02,6.562111526727676392e-02,1.092965900897979736e-02,-6.226134137250483036e-04,-7.650698721408843994e-02,-4.007693752646446228e-02,1.042470987886190414e-02,1.274009514600038528e-02,-4.589271545410156250e-02,-1.059809997677803040e-01,-4.408634454011917114e-02,2.390105836093425751e-02,4.780275747179985046e-02,-1.339572016149759293e-02,1.905482448637485504e-02,-4.043462127447128296e-02,5.858922004699707031e-02,5.057822540402412415e-02,-2.833980135619640350e-02,-1.766113378107547760e-02,-3.146977722644805908e-02,4.872894287109375000e-02,1.050352700985968113e-03,9.997299872338771820e-03,2.108440920710563660e-02,-3.568362072110176086e-02,6.408797949552536011e-02,6.453105062246322632e-02,-6.556491553783416748e-02,-2.626858092844486237e-02,4.530228674411773682e-03,2.522158250212669373e-02,-6.996870785951614380e-02,-2.969757281243801117e-02,-1.588448323309421539e-02,-1.002830360084772110e-02,3.174188360571861267e-02,-3.236396983265876770e-02,-1.134245023131370544e-01,3.061832161620259285e-03,2.107286453247070312e-02,2.739753760397434235e-02,-3.534205630421638489e-02,-1.476293057203292847e-02,8.693643659353256226e-02,-2.096310257911682129e-02,-5.989008117467164993e-03,3.499241173267364502e-02,1.752625852823257446e-01,-6.436870247125625610e-02,6.886353343725204468e-02,7.817579805850982666e-02,7.918854802846908569e-02,2.299450524151325226e-02,2.962932176887989044e-02,6.818114966154098511e-02,-4.680192098021507263e-02,8.863974362611770630e-02,-1.022952049970626831e-01,-4.079822450876235962e-02,-5.477263033390045166e-02,8.148063905537128448e-03,3.645748645067214966e-02,-1.348696183413267136e-02,-6.877023726701736450e-02,-3.815999254584312439e-02,7.399409264326095581e-02,-3.080498240888118744e-02,-9.974317252635955811e-02,-1.131478846073150635e-01,2.172360196709632874e-02,1.980556249618530273e-01,4.281894490122795105e-02,-1.096765697002410889e-02,3.580452129244804382e-02,-8.126904256641864777e-03,-2.642512507736682892e-02,-3.043560311198234558e-02,-1.032602507621049881e-02,5.958868563175201416e-02,6.130242347717285156e-02,2.347538433969020844e-02,4.744532331824302673e-02,3.168978542089462280e-02,5.224928259849548340e-02,-7.529614958912134171e-03,-4.004993289709091187e-02,-4.113580659031867981e-02,-1.605156660079956055e-01,-3.316557407379150391e-02,5.313548073172569275e-02,-3.456509439274668694e-03,-4.681167379021644592e-02,-4.266524687409400940e-02,-1.761679910123348236e-02,1.272771786898374557e-02,6.791347265243530273e-02,9.428680688142776489e-02,3.163533285260200500e-02,2.033511176705360413e-02,4.752346128225326538e-02,1.825227215886116028e-02,-4.160548374056816101e-02,3.234060248360037804e-03,-6.241838634014129639e-02,4.570016637444496155e-02,-1.223198510706424713e-02,-8.173906058073043823e-02,-1.559079140424728394e-01,5.238686501979827881e-02,-3.542649210430681705e-04,-8.364284038543701172e-02,-8.650832623243331909e-02,7.882134616374969482e-02,1.132060959935188293e-01,6.646621227264404297e-02,-4.836495220661163330e-02,7.113689184188842773e-02,9.881055355072021484e-02,-2.826897799968719482e-02,1.096514761447906494e-01,-4.199799522757530212e-02,1.170623600482940674e-01,1.418307274580001831e-01,-2.021007239818572998e-02,-5.274915695190429688e-02,1.554465573281049728e-02,-4.320829734206199646e-02,7.044252753257751465e-02,-6.353987008333206177e-02,4.836633056402206421e-02,3.854058682918548584e-02,-1.758819632232189178e-02,-1.182574704289436340e-01,-4.863765090703964233e-02,-2.258804859593510628e-03,9.961755946278572083e-03,-9.412047266960144043e-02,-4.291277006268501282e-02,-3.613705560564994812e-02,8.466964587569236755e-03,-2.487065084278583527e-02,2.719614841043949127e-02,1.251393556594848633e-01,-1.295507792383432388e-02,3.256298229098320007e-02,3.442232683300971985e-02,-6.550775468349456787e-02,1.367149949073791504e-01,6.321239471435546875e-02,9.319733828306198120e-02,2.357592433691024780e-02,-1.495596207678318024e-02,-6.183317303657531738e-02,-4.665412008762359619e-02,-1.247054412961006165e-01,6.499000824987888336e-03,5.000050365924835205e-02,-7.510883361101150513e-02,-1.084382236003875732e-01,-3.265688195824623108e-02,4.047479853034019470e-02,-1.836788468062877655e-02,-9.276593104004859924e-03,9.728677570819854736e-02,-6.976390630006790161e-02,-5.407572025433182716e-04,5.130825564265251160e-03,-1.601424254477024078e-02,-1.138918194919824600e-02,4.645088687539100647e-02,3.270838037133216858e-02,1.084079444408416748e-01,5.758588761091232300e-02,1.412271615117788315e-02,7.597836852073669434e-02,6.368499249219894409e-02,1.525470018386840820e-01,5.066480487585067749e-02,4.137473553419113159e-02,1.325640734285116196e-02,6.866549700498580933e-02,-2.261543087661266327e-02,5.081996321678161621e-02,-2.197647839784622192e-02,8.924133144319057465e-03,8.710846304893493652e-02,2.000732347369194031e-02,6.630275398492813110e-02,-5.164672806859016418e-02,4.552256315946578979e-02,6.241628155112266541e-02,9.149350970983505249e-02,1.913604512810707092e-02,-6.625893712043762207e-02,1.417601387947797775e-02,2.819982469081878662e-01,7.502238452434539795e-02,-2.728334255516529083e-02,6.212165113538503647e-03,-9.591832756996154785e-03,-5.665817297995090485e-03,8.972547948360443115e-03,-1.971333660185337067e-02,4.380286484956741333e-02,6.572715193033218384e-02,7.574019581079483032e-02,-2.284363657236099243e-02,-6.630460917949676514e-02,1.261676382273435593e-02,-5.136999115347862244e-02,1.151384692639112473e-02,-1.023895516991615295e-01,-1.312983930110931396e-01,2.501491084694862366e-02,-2.307785302400588989e-02,-6.114619597792625427e-02,-1.702791638672351837e-02,-1.080399081110954285e-01,7.480032742023468018e-02,7.083223015069961548e-02,2.574210055172443390e-02,-2.770097635220736265e-04,3.411507979035377502e-02,-8.904206752777099609e-02,4.983603488653898239e-03,1.185625791549682617e-02,6.277753505855798721e-03,-6.274996697902679443e-02,1.807979121804237366e-02,7.974696159362792969e-02,1.141815930604934692e-01,1.230852678418159485e-01,5.295299738645553589e-02,7.784187793731689453e-02,1.556642651557922363e-01,-6.335392128676176071e-03,1.171504333615303040e-01,5.837565287947654724e-02,6.431926786899566650e-02,1.849710792303085327e-01,9.650173038244247437e-02,1.291583925485610962e-01,3.657937794923782349e-02,9.722500294446945190e-02,2.671568095684051514e-01,1.470353603363037109e-01,1.787750720977783203e-01,2.119905501604080200e-02,1.203561201691627502e-01,9.282926470041275024e-02,2.282467931509017944e-01,2.690614759922027588e-02,2.198756486177444458e-02,-4.814796149730682373e-02,-1.163624376058578491e-01,1.855676025152206421e-01,6.436242163181304932e-02,-3.761459887027740479e-02,-8.317063003778457642e-02,-1.057627871632575989e-01,4.786605760455131531e-02,6.440707296133041382e-02,1.076487451791763306e-02,-1.912807226181030273e-01,-1.092942953109741211e-01,2.363972598686814308e-04,-3.608681261539459229e-02,-2.806922048330307007e-02,-1.968190521001815796e-01,-1.510687023401260376e-01,-1.172907464206218719e-02,-1.786389946937561035e-02,2.972861379384994507e-02,-1.290032058022916317e-03,-4.289056640118360519e-03,4.097547009587287903e-02,5.363704264163970947e-02,-8.365298062562942505e-02,9.304997324943542480e-02,3.518751636147499084e-02,4.551530629396438599e-02,1.583289168775081635e-02,-1.104256254620850086e-03,1.423059590160846710e-02,-2.021786198019981384e-02,-2.536047808825969696e-02,-1.151440758258104324e-02,-2.052635699510574341e-02,1.463763229548931122e-02,3.562676161527633667e-02,-2.004979178309440613e-02,-7.491959631443023682e-02,-4.359240457415580750e-02,6.696667522192001343e-02,5.392901226878166199e-02,8.569811284542083740e-02,9.094894677400588989e-02,3.017988801002502441e-02,9.147676080465316772e-02,2.886292524635791779e-02,4.683235660195350647e-02,8.187785744667053223e-02,2.362494543194770813e-02,1.594293862581253052e-02,1.344828773289918900e-02,3.217468038201332092e-03,2.332157921046018600e-03,-4.555167630314826965e-02,-3.797742724418640137e-02,-3.649094328284263611e-02,-2.038079127669334412e-02,2.867661416530609131e-02,-6.576577574014663696e-02,-5.259762331843376160e-02,6.145653501152992249e-02,7.155542820692062378e-02,-1.142054144293069839e-02,-1.392152160406112671e-01,-3.967753797769546509e-02,5.141938850283622742e-02,4.494116082787513733e-02,5.772739648818969727e-02,1.167005300521850586e-02,-1.366352438926696777e-01,-2.583240158855915070e-02,8.181242644786834717e-02,3.737137094140052795e-02,1.458980292081832886e-01,-1.027229949831962585e-01,-7.052467670291662216e-03,-7.754503190517425537e-02,-1.235286891460418701e-02,1.009392738342285156e-01,-3.394123911857604980e-02,1.974154449999332428e-02,-5.669711530208587646e-02,2.451043203473091125e-02,3.771366924047470093e-02,-6.045756861567497253e-03,6.757874041795730591e-02,-1.909765228629112244e-02,-4.457073286175727844e-03,4.616752639412879944e-02,-2.950381673872470856e-02,2.328558266162872314e-02,-5.143569037318229675e-02,-2.504088729619979858e-02,-2.772603556513786316e-02,2.095792815089225769e-02,1.335248537361621857e-02,2.997318096458911896e-02,2.026303857564926147e-02,6.170666590332984924e-02,-8.563221246004104614e-02,1.843292638659477234e-02,9.796459227800369263e-02,2.195427007973194122e-02,-1.958759874105453491e-02,-1.883132942020893097e-02,4.433765634894371033e-02,5.589102208614349365e-02,3.874820470809936523e-02,7.522495836019515991e-02,-5.934385210275650024e-02,8.210818469524383545e-02,-2.885371819138526917e-02,2.508433163166046143e-02,2.425913140177726746e-02,7.085951417684555054e-02,2.689813822507858276e-02,4.814771562814712524e-02,-3.369302302598953247e-02,-3.518287837505340576e-02,9.020898491144180298e-02,7.792989909648895264e-02,4.256454110145568848e-02,-1.870424859225749969e-02,1.203004270792007446e-02,1.322185504250228405e-03,-1.163904666900634766e-01,-2.220997214317321777e-02,5.409412458539009094e-02,5.030748620629310608e-02,6.040800828486680984e-03,-8.765806257724761963e-02,-1.218227762728929520e-02,-1.489497423171997070e-01,3.316207975149154663e-02,-3.088027425110340118e-02,3.756630048155784607e-02,2.381074056029319763e-02,1.082556229084730148e-02,-1.629113219678401947e-03,1.151615381240844727e-01,-1.927674165926873684e-03,-9.085158258676528931e-02,-1.189126074314117432e-01,-2.889643311500549316e-01,5.640833452343940735e-02,1.418947614729404449e-02,5.163506045937538147e-02,-1.185901928693056107e-02,4.940975457429885864e-02,-4.447132349014282227e-02,-3.947199136018753052e-02,-3.034713678061962128e-03,3.082451224327087402e-02,-4.506145138293504715e-03,-8.352132141590118408e-02,-4.678576439619064331e-02,5.431975051760673523e-02,-2.095530927181243896e-02,2.263689599931240082e-02,-6.867405027151107788e-02,-7.233040779829025269e-02,7.060667127370834351e-02,6.540139019489288330e-02,3.407808719202876091e-03,2.440785057842731476e-02,1.574641652405261993e-02,3.087174333631992340e-02,5.388048943132162094e-03,-4.320273920893669128e-02,1.448775641620159149e-02,-6.715906411409378052e-02,5.262629687786102295e-02,7.360170036554336548e-02,6.511069834232330322e-02,-7.875926792621612549e-02,-1.021031942218542099e-02,1.079310663044452667e-02,1.316399686038494110e-02,-5.752316862344741821e-02,-1.036170944571495056e-01,-8.797600865364074707e-02,-2.734195068478584290e-02,-2.452595345675945282e-02,3.709939494729042053e-02,2.301931753754615784e-02,-5.498452112078666687e-02,-5.925727076828479767e-03,-3.389358520507812500e-02,-2.110235951840877533e-02,8.169862627983093262e-02,3.550770133733749390e-02,-3.689955174922943115e-02,-1.368354633450508118e-02,-8.480883389711380005e-02,-4.482256248593330383e-02,1.921546272933483124e-02,3.567064180970191956e-02,6.070290505886077881e-02,-5.607933923602104187e-02,-5.705882981419563293e-02,4.090519621968269348e-02,1.119613498449325562e-01,6.075955554842948914e-02,-3.922524303197860718e-02,-8.652436546981334686e-03,7.192533463239669800e-02,-1.689280942082405090e-02,-7.744676619768142700e-02,3.819346660748124123e-03,5.696630105376243591e-04,3.264408186078071594e-02,-3.818507306277751923e-03,-7.235845923423767090e-02,9.254276007413864136e-02,-3.957701101899147034e-02,1.156213227659463882e-02,1.568756997585296631e-02,-1.127232145518064499e-02,3.751834481954574585e-02,4.548187181353569031e-02,8.371973037719726562e-02,3.723705932497978210e-02,1.084949821233749390e-01,1.546546258032321930e-02,7.173654437065124512e-02,3.953197598457336426e-02,-3.908836469054222107e-02,6.756947189569473267e-02,1.796546205878257751e-02,-8.018115907907485962e-02,-3.224335610866546631e-02,-8.915522135794162750e-03,4.048545658588409424e-02,7.188208866864442825e-03,-1.187599822878837585e-02,4.303501173853874207e-02,-5.970147624611854553e-02,-4.490435868501663208e-02,-7.242693006992340088e-02,-8.120243996381759644e-02,-2.920326311141252518e-03,-1.325915846973657608e-02,-5.365110002458095551e-03,5.865715444087982178e-03,7.185437530279159546e-02,7.650370895862579346e-02,1.028256192803382874e-01,4.733988270163536072e-02,3.124972106888890266e-03,-6.993021070957183838e-02,4.574339836835861206e-02,-5.082898959517478943e-02,-1.995591260492801666e-02,-4.240345954895019531e-02,-1.026061996817588806e-01,2.523485384881496429e-02,-6.198404822498559952e-03,-8.112472482025623322e-03,-2.217959985136985779e-02,1.052397768944501877e-02,3.334757313132286072e-02,-5.145730823278427124e-02,-2.451059967279434204e-02,-1.098139882087707520e-01,8.745999634265899658e-02,-6.662463769316673279e-03,-2.668927609920501709e-02,-1.777053251862525940e-02,-1.870125085115432739e-01,-4.108272120356559753e-02,6.845661997795104980e-02,6.249476596713066101e-02,5.704547464847564697e-02,-1.324571296572685242e-02,-5.572431534528732300e-02,9.288553148508071899e-02,3.509945422410964966e-02,3.861803933978080750e-02,6.576125323772430420e-02,-3.880308195948600769e-02,8.970955759286880493e-02,3.601009771227836609e-02,4.135576263070106506e-02,-3.228039946407079697e-03,-4.170623794198036194e-02,-6.137443706393241882e-02,3.373759239912033081e-02,8.408199995756149292e-03,-9.177237749099731445e-02,-3.546422719955444336e-02,-1.152184139937162399e-02,-2.223087660968303680e-02,-4.539431829471141100e-04,-2.106305360794067383e-01,1.555356383323669434e-02,-2.956852503120899200e-02,-5.256124213337898254e-02,1.431872695684432983e-02,7.786741852760314941e-02,-1.483189463615417480e-01,-9.738401323556900024e-02,-2.856193669140338898e-02,-1.939751952886581421e-02,-2.842682041227817535e-02,-2.109916694462299347e-02,-1.129320934414863586e-01,6.654260307550430298e-02,6.067023053765296936e-02,-6.411714106798171997e-02,1.113494411110877991e-01,-4.518120363354682922e-02,6.009993702173233032e-02,3.734877333045005798e-02,4.460996389389038086e-02,9.250541031360626221e-02,-4.868647083640098572e-02,2.374536544084548950e-02,2.307389490306377411e-02,-8.069135993719100952e-02,-1.029630750417709351e-01,-3.804294392466545105e-02,-1.159299015998840332e-01,-1.003549098968505859e-01,1.272467374801635742e-01,1.509753055870532990e-02,-4.575043171644210815e-02,-9.212639182806015015e-03,-5.608924850821495056e-02,5.531973019242286682e-02,4.048012197017669678e-02,-2.976593747735023499e-02,-5.193793773651123047e-02,-1.068658232688903809e-01,1.593163050711154938e-02,-1.608165795914828777e-03,-4.642314091324806213e-02,-6.766743212938308716e-02,3.665746375918388367e-02,-1.227557007223367691e-02,2.064771950244903564e-02,5.547942966222763062e-02,-7.223231345415115356e-02,-4.118986055254936218e-02,3.671334683895111084e-02,5.052492395043373108e-02,5.158080160617828369e-02,3.846099600195884705e-02,1.108742356300354004e-01,2.175182662904262543e-02,4.791479930281639099e-02,6.738684326410293579e-02,4.395588114857673645e-02,-1.041268836706876755e-02,-1.736535131931304932e-02,-5.130380019545555115e-02,5.322725512087345123e-03,2.593875676393508911e-02,7.672696560621261597e-02,2.068732306361198425e-02,-9.866996854543685913e-02,5.636744573712348938e-02,-1.774454489350318909e-02,-1.076703146100044250e-02,-4.150595981627702713e-03,-6.720823049545288086e-02,-4.164644703269004822e-02,2.462420798838138580e-02,-2.431547269225120544e-03,3.658238798379898071e-02,4.701109975576400757e-02,4.539064317941665649e-02,1.391823124140501022e-02,-6.616841256618499756e-02,2.901267446577548981e-02,1.612779498100280762e-02,2.396746538579463959e-02,1.120572909712791443e-02,-2.291514910757541656e-02,5.326581746339797974e-02,3.402128443121910095e-02,6.566587090492248535e-02,-5.238996818661689758e-02,-1.509163081645965576e-01,-2.343414165079593658e-02,-4.817632585763931274e-02,-9.027062356472015381e-02,2.612330205738544464e-02,-5.206647887825965881e-02,-4.915653914213180542e-02,3.199363499879837036e-02,1.708649471402168274e-02,5.917624756693840027e-02,-7.631975412368774414e-02,-3.727499023079872131e-02,-5.483262985944747925e-02,-1.635007858276367188e-01,-1.000812128186225891e-01,-4.261806979775428772e-02,-3.847920149564743042e-02,-1.385384500026702881e-01,-2.240789681673049927e-01,-7.047806680202484131e-02,1.121215429157018661e-02,4.962164163589477539e-02,-1.379888951778411865e-01,-7.603373378515243530e-02,4.900001361966133118e-02,1.182178184390068054e-01,-2.296709455549716949e-02,-8.926399052143096924e-02,-9.013833850622177124e-02,-1.337765064090490341e-02,3.038675338029861450e-02,7.570859044790267944e-02,-1.252126842737197876e-01,-3.543452918529510498e-02,-5.223421007394790649e-02,3.643548116087913513e-02,6.910908222198486328e-02,9.100252389907836914e-02,6.895807385444641113e-02,1.523153670132160187e-02,7.414894644170999527e-03,-9.441895037889480591e-02,6.278147548437118530e-02,-8.167698979377746582e-02,-4.652717709541320801e-02,1.395127363502979279e-02,-1.190327759832143784e-02,-2.959736622869968414e-02,-7.404044270515441895e-02,-1.143613085150718689e-01,-6.231481209397315979e-02,-3.866067156195640564e-02,1.779253798304125667e-04,4.787830263376235962e-02,-4.557932540774345398e-02,-5.149411782622337341e-02,-2.327341586351394653e-02,4.814308509230613708e-02,5.991296470165252686e-02,-4.777577891945838928e-02,-7.263864576816558838e-02,-9.145338833332061768e-02,-4.431888088583946228e-02,-9.009268134832382202e-02,1.315001100301742554e-01,5.375065654516220093e-02,5.482281744480133057e-02,9.606989100575447083e-03,6.216239184141159058e-02,1.080243289470672607e-01,3.426211699843406677e-02,2.896871417760848999e-02,-2.554150484502315521e-02,4.131978377699851990e-02,-5.072711780667304993e-02,-6.990616023540496826e-02,-9.903199970722198486e-02,3.825890645384788513e-02,-4.232105240225791931e-02,-1.536215469241142273e-02,8.300270140171051025e-02,8.605863898992538452e-02,5.461681634187698364e-02,1.049688234925270081e-01,-9.875928051769733429e-03,-5.527000501751899719e-02,-5.232197046279907227e-02,7.092694193124771118e-02,-1.437579095363616943e-02,-1.149700805544853210e-01,6.081526167690753937e-03,6.775707006454467773e-02,2.084321342408657074e-02,-3.145387023687362671e-02,-1.330155283212661743e-01,-4.340355843305587769e-02,-7.744895666837692261e-02,9.623635560274124146e-03,1.114912778139114380e-01,-7.732080668210983276e-02,-6.304825097322463989e-02,-9.342258423566818237e-02,6.965179927647113800e-03,-5.403627641499042511e-03,1.527287764474749565e-03,1.937382109463214874e-02,-5.642225220799446106e-02,5.056132003664970398e-02,2.396298572421073914e-02,-5.400979146361351013e-02,6.464786827564239502e-02,6.817318499088287354e-02,4.728088527917861938e-02,2.690285816788673401e-02,8.464889600872993469e-03,-2.413895726203918457e-02,2.290009148418903351e-02,2.371127158403396606e-02,-1.347270514816045761e-02,-2.960046194493770599e-02,1.034494396299123764e-02,5.880405381321907043e-02,4.878434538841247559e-02,-1.571494899690151215e-02,-2.138410694897174835e-02,1.887528412044048309e-02,4.072704911231994629e-02,4.639283940196037292e-02,4.443965107202529907e-02,3.153010457754135132e-02,2.306197211146354675e-02,3.778093494474887848e-03,8.331847190856933594e-02,8.714199066162109375e-02,-3.559233993291854858e-02,6.055001914501190186e-02,1.206172332167625427e-01,-9.725890308618545532e-02,-8.950294554233551025e-02,-1.164020150899887085e-01,5.554952472448348999e-02,1.108661964535713196e-01,2.504140883684158325e-02,1.008491870015859604e-02,4.740033298730850220e-02,1.368547827005386353e-01,1.698430329561233521e-01,-3.313917294144630432e-02,2.864389680325984955e-02,1.009905040264129639e-01,6.145991757512092590e-02,-1.777657493948936462e-02,-9.134586155414581299e-02,-3.766977414488792419e-02,-9.489780664443969727e-02,-7.087258994579315186e-02,6.637731939554214478e-02,-5.811339616775512695e-02,7.557311560958623886e-03,-3.809314966201782227e-02,-6.428455468267202377e-03,-6.471659243106842041e-02,2.655157446861267090e-02,6.374582648277282715e-02,9.040442295372486115e-03,-2.847744897007942200e-02,-4.972178116440773010e-02,6.975378096103668213e-02,2.760707028210163116e-02,-3.374508023262023926e-02,-1.001847907900810242e-01,-3.286828985437750816e-03,9.093350172042846680e-02,4.511380568146705627e-03,6.288306415081024170e-02,-1.561442017555236816e-02,-7.499785721302032471e-02,-5.966915190219879150e-02,1.989785023033618927e-02,6.135427951812744141e-02,-1.299046538770198822e-02,-3.624305129051208496e-02,-8.319024927914142609e-04,4.094653949141502380e-02,4.002941027283668518e-02,6.402431428432464600e-02,2.783509716391563416e-02,4.921761155128479004e-02,1.006571203470230103e-02,-2.527364343404769897e-02,-6.379825621843338013e-02,-6.773416697978973389e-02,3.239864856004714966e-02,3.236673772335052490e-02,2.269864827394485474e-02,-6.038965284824371338e-02,4.184924811124801636e-02,-7.874925434589385986e-02,9.733310341835021973e-02,3.902786225080490112e-02,-1.154191140085458755e-02,6.030074320733547211e-03,4.447212442755699158e-03,-4.165346920490264893e-02,-3.300173953175544739e-02,5.944519490003585815e-02,1.731586456298828125e-02,4.180665593594312668e-03,-8.165681362152099609e-02,2.621030434966087341e-02,4.258177056908607483e-02,1.454506963491439819e-01,1.003509983420372009e-01,1.252486277371644974e-02,-3.141602501273155212e-02,-1.210790947079658508e-01,4.478355869650840759e-03,5.999989062547683716e-02,-1.902094855904579163e-02,-1.139494776725769043e-01,-1.011631712317466736e-01,-6.549963355064392090e-02,3.982271626591682434e-02,1.178299263119697571e-02,-2.888825722038745880e-02,-4.223181679844856262e-02,-1.801178306341171265e-01,2.453604154288768768e-02,8.969219028949737549e-02,-2.514512464404106140e-02,-2.444759570062160492e-02,-1.182075887918472290e-01,4.769561439752578735e-02,-2.570863254368305206e-02,-9.119641035795211792e-02,-2.351380884647369385e-02,9.728736430406570435e-02,-1.234612688422203064e-01,-9.684307873249053955e-02,1.496312301605939865e-02,1.084858626127243042e-01,2.435629963874816895e-01,-4.921806976199150085e-04,-3.034528112038969994e-03,-2.973953029140830040e-03,5.078526213765144348e-02,5.207294970750808716e-02,1.273989528417587280e-01,5.589194968342781067e-02,-7.138659805059432983e-02,-2.364200539886951447e-02,-4.614831879734992981e-02,-3.999060764908790588e-02,-6.131333857774734497e-02,2.042520232498645782e-02,2.436869964003562927e-02,-1.360927429050207138e-02,8.279925584793090820e-02,5.336702615022659302e-02,7.516276836395263672e-02,-5.108808982186019421e-04,1.379589829593896866e-02,-2.142757736146450043e-02,4.199042916297912598e-03,-8.711174875497817993e-02,-4.228331521153450012e-02,7.830923795700073242e-02,5.123145133256912231e-02,2.939605712890625000e-02,-3.637882415205240250e-03,1.051199883222579956e-01,8.970119804143905640e-02,1.304704975336790085e-02,2.830811776220798492e-02,5.781278479844331741e-03,6.429448723793029785e-02,2.616391517221927643e-02,7.524273544549942017e-02,2.993809245526790619e-02,-5.561019480228424072e-02,-1.580571010708808899e-02,7.643274962902069092e-02,1.224926393479108810e-02,3.344878181815147400e-02,1.019904576241970062e-02,5.800868943333625793e-02,1.159700565040111542e-02,1.033157557249069214e-01,6.596091389656066895e-02,-3.437174251303076744e-03,-1.059152092784643173e-02,1.497158221900463104e-02,1.896216161549091339e-02,-1.858571171760559082e-02,-4.168877005577087402e-02,-2.976409392431378365e-03,1.446530520915985107e-01,-4.061900451779365540e-02,-6.293912418186664581e-03,-1.681567355990409851e-02,-7.070261053740978241e-03,-8.731034398078918457e-02,6.045033037662506104e-02,1.079802438616752625e-01,-3.332659974694252014e-02,-5.584515258669853210e-02,-1.376582030206918716e-02,6.950981914997100830e-02,1.556088868528604507e-02,-3.777593374252319336e-02,1.271872594952583313e-02,8.174153417348861694e-02,2.834624424576759338e-02,-1.040262402966618538e-03,-1.256974339485168457e-01,-1.427864879369735718e-01,-9.814965724945068359e-02,1.739361435174942017e-01,1.837050169706344604e-01,-4.165481310337781906e-03,-3.021768666803836823e-02,-7.092770934104919434e-02,4.761456325650215149e-02,4.654880985617637634e-02,1.056210547685623169e-01,6.072830036282539368e-02,4.984090104699134827e-03,-1.296432465314865112e-01,-4.313982650637626648e-02,4.872018843889236450e-02,1.162612214684486389e-01,2.252113446593284607e-02,1.965839788317680359e-02,-1.200859621167182922e-02,-1.520968973636627197e-02,5.842003598809242249e-02,1.029082313179969788e-01,6.173538416624069214e-02,-1.955772377550601959e-02,-2.375589869916439056e-02,4.008980095386505127e-02,3.811668977141380310e-02,2.927407063543796539e-02,-1.464575994759798050e-02,-1.701951920986175537e-01,-2.980372868478298187e-02,-4.433810338377952576e-02,4.380374774336814880e-02,1.295624375343322754e-01,-1.259674131870269775e-01,-2.519406750798225403e-02,-2.974212914705276489e-02,3.834206610918045044e-03,6.823247671127319336e-02,-1.503064529970288277e-03,-4.143460839986801147e-02,-1.132432073354721069e-01,1.079744007438421249e-02,-5.642206594347953796e-02,-5.666260048747062683e-02,9.457434527575969696e-03,7.647098973393440247e-03,-2.514782175421714783e-02,7.978315651416778564e-02,1.139978393912315369e-01,1.786305457353591919e-01,1.497542113065719604e-01,-3.663696721196174622e-02,-7.100480794906616211e-02,-1.060703769326210022e-02,-2.158389240503311157e-02,-3.204250335693359375e-02,2.173270098865032196e-02,-1.990332826972007751e-02,-6.776206195354461670e-02,-7.933079265058040619e-03,-3.516574203968048096e-02,-7.803075015544891357e-02,-2.720896527171134949e-02,4.659273661673069000e-03,-2.412678115069866180e-02,-6.198631972074508667e-02,4.240987077355384827e-02,1.069495156407356262e-01,-1.177691575139760971e-02,1.824365556240081787e-02,4.873821511864662170e-02,6.400050222873687744e-02,-6.307482719421386719e-02,-7.029033452272415161e-02,1.434058212907984853e-04,8.690936118364334106e-02,-5.990653485059738159e-02,-8.853125572204589844e-02,1.280029267072677612e-01,1.392305046319961548e-01,1.298680007457733154e-01,-1.723411865532398224e-02,4.321394115686416626e-02,-5.119710415601730347e-02,1.209228932857513428e-01,1.259311586618423462e-01,5.397849902510643005e-02,-1.021971404552459717e-01,-7.510524988174438477e-02,-3.462433442473411560e-02,9.766413271427154541e-02,-7.225397974252700806e-02,-1.185309067368507385e-01,4.547759424895048141e-03,-9.658226370811462402e-02,-2.688317932188510895e-02,1.435284316539764404e-01,1.751049458980560303e-01,3.342035040259361267e-02,-5.502987280488014221e-02,1.919949427247047424e-03,1.751502603292465210e-01,9.410096704959869385e-02,2.886574901640415192e-02,-1.036750897765159607e-01,-3.944940119981765747e-02,-7.233089208602905273e-02,3.943734988570213318e-02,2.273308672010898590e-02,-1.338347941637039185e-01,-3.034921362996101379e-02,-9.719509631395339966e-02,4.451049491763114929e-02,-1.363143511116504669e-02,-7.020377367734909058e-02,-3.078099898993968964e-02,-9.025508537888526917e-03,1.447955667972564697e-01,2.114300616085529327e-02,-8.083108812570571899e-02,4.070704802870750427e-03,-3.244296088814735413e-02,-4.210976138710975647e-02,4.635257646441459656e-02,-2.752192085608839989e-03,1.633143872022628784e-01,4.292614012956619263e-02,7.049552351236343384e-02,7.320845872163772583e-02,2.293813973665237427e-02,-3.036528360098600388e-03,4.083029553294181824e-02,-1.667744480073451996e-02,-4.903939366340637207e-02,1.403463725000619888e-02,1.135634407401084900e-01,-9.987298399209976196e-02,1.142943836748600006e-02,3.366071265190839767e-03,4.552081972360610962e-02,7.681158185005187988e-02,1.918538659811019897e-02,3.367524594068527222e-02,-5.123991519212722778e-02,2.135575748980045319e-02,7.570240646600723267e-02,4.972450807690620422e-02,-6.882797926664352417e-02,-5.842640995979309082e-02,-2.036168873310089111e-01,-1.646471172571182251e-01,-5.138232931494712830e-02,-7.136331498622894287e-02,-1.048034280538558960e-01,-9.957981854677200317e-02,-1.339115053415298462e-01,1.075320914387702942e-01,8.652104437351226807e-02,-8.528547734022140503e-02,3.607056662440299988e-02,2.236368693411350250e-02,6.011941283941268921e-02,7.849077880382537842e-02,3.480165079236030579e-02,5.594270303845405579e-02,1.088939839974045753e-03,-4.377908632159233093e-02,-5.260854586958885193e-02,2.943887608125805855e-03,8.829623460769653320e-02,1.120353266596794128e-01,-2.378189004957675934e-02,7.410731632262468338e-03,-5.315429344773292542e-02,-3.761374205350875854e-02,-3.881542384624481201e-02,-6.029111891984939575e-02,-3.690743818879127502e-02,-4.899847880005836487e-02,-4.177214950323104858e-02,-3.334918245673179626e-02,-3.750034421682357788e-02,-4.741981253027915955e-02,-2.067505568265914917e-02,-6.021963059902191162e-02,3.068957291543483734e-02,-5.207014083862304688e-02,5.027701705694198608e-02,-5.193040147423744202e-02,-3.775489330291748047e-02,5.678964778780937195e-02,-3.304067626595497131e-02,3.046211041510105133e-02,-2.643869817256927490e-02,5.292037967592477798e-03,-4.774690419435501099e-02,1.786914467811584473e-02,-3.506851941347122192e-02,3.955613356083631516e-03,-2.650273218750953674e-02,-2.278569899499416351e-02,-2.041006274521350861e-02,1.093637477606534958e-02,-4.978943988680839539e-02,-3.673558682203292847e-02,-2.668954059481620789e-02,1.702341437339782715e-02,-1.197048090398311615e-02,-1.093062674044631422e-04,3.013436309993267059e-02,1.584761962294578552e-02,3.574777394533157349e-02,-2.008301392197608948e-02,1.938954927027225494e-02,3.464416787028312683e-02,-5.714073195122182369e-04,3.976228981628082693e-05,-6.195702403783798218e-02,3.406316041946411133e-02,9.499189443886280060e-03,-5.298580229282379150e-02,2.640221454203128815e-02,-3.761498630046844482e-02,-4.231290146708488464e-02,-4.662375897169113159e-02,3.692760318517684937e-02,3.861749544739723206e-02,8.651897311210632324e-03,5.337708164006471634e-03,-1.193593069911003113e-02,-2.834309358149766922e-03,9.183862246572971344e-03,-1.590641774237155914e-02,-3.017370589077472687e-02,2.529458701610565186e-02,2.229615114629268646e-02,2.815148979425430298e-02,3.660136461257934570e-02,3.930836915969848633e-02,-4.768193140625953674e-02,5.605817958712577820e-02,1.188408862799406052e-02,3.531687706708908081e-02,-5.606184527277946472e-02,3.566396608948707581e-02,2.448233775794506073e-02,1.889503374695777893e-02,1.831116527318954468e-02,-2.298437617719173431e-02,2.197320200502872467e-02,-1.123504433780908585e-02,2.271770685911178589e-02,-6.109507754445075989e-02,-3.953193500638008118e-02,-3.273339942097663879e-02,-2.539178915321826935e-02,6.890265271067619324e-03,-4.884176328778266907e-02,-2.902175113558769226e-02,-4.154742136597633362e-02,-4.101322218775749207e-02,3.492087125778198242e-02,-3.692834079265594482e-02,-5.944799631834030151e-02,1.102843787521123886e-03,6.139066070318222046e-03,3.757286071777343750e-02,1.505916286259889603e-02,3.719536215066909790e-02,-5.837800353765487671e-02,-4.640108346939086914e-02,-5.949003249406814575e-02,-3.791529685258865356e-03,-2.799247950315475464e-02,1.620151288807392120e-02,-3.525908663868904114e-02,5.954765249043703079e-03,-1.525724027305841446e-02,-6.169551517814397812e-03,-5.658863112330436707e-02,1.264804415404796600e-02,2.665385231375694275e-02,3.572227433323860168e-02,-1.902190409600734711e-02,6.652866490185260773e-03,